-5.557813681662082672e-03
3.411636222153902054e-03
-5.140814464539289474e-03
-5.558417644351720810e-03
-7.650921121239662170e-03
8.466238155961036682e-03
-5.557565484195947647e-03
2.321267966181039810e-03
-7.954726926982402802e-03
-2.246514894068241119e-03
-1.588287763297557831e-03
1.634746603667736053e-02
-1.038296800106763840e-02
1.153079885989427567e-02
-5.346570629626512527e-03
-8.798779919743537903e-03
-7.818100042641162872e-03
-8.695844560861587524e-03
-9.666192345321178436e-03
-6.775285117328166962e-03
1.420144550502300262e-02
-4.263894166797399521e-03
-9.075028821825981140e-03
-6.175683811306953430e-03
-6.005128845572471619e-03
7.591003086417913437e-04
-5.838908255100250244e-03
1.652914914302527905e-03
-5.558245815336704254e-03
1.013887766748666763e-02
1.108819153159856796e-03
-5.159359425306320190e-03
2.184868557378649712e-03
4.005077760666608810e-03
6.097274832427501678e-03
5.943813361227512360e-03
-5.731575656682252884e-03
-1.112666167318820953e-02
-7.547286339104175568e-03
-5.225884262472391129e-03
-8.756438270211219788e-03
-8.050971664488315582e-03
-8.779891766607761383e-03
5.372569896280765533e-03
-9.228451177477836609e-03
8.683451451361179352e-03
-5.770303774625062943e-03
2.403994323685765266e-03
-9.143365547060966492e-03
-6.775313057005405426e-03
1.404054928570985794e-02
-6.005121394991874695e-03
-6.418766919523477554e-03
-1.407514791935682297e-02
-8.608496747910976410e-03
-1.116963848471641541e-02
3.397580003365874290e-04
1.600537076592445374e-02
9.459568187594413757e-03
1.348568405956029892e-02
1.091361511498689651e-02
-3.849592991173267365e-03
-2.351038157939910889e-03
-1.045169122517108917e-02
-5.125960800796747208e-03
-1.007013022899627686e-02
1.098590344190597534e-02
-3.228321671485900879e-03
-7.246049586683511734e-03
1.344131655059754848e-03
-5.504619795829057693e-03
-4.949236754328012466e-03
8.695551659911870956e-04
-6.004631519317626953e-03
-5.558057688176631927e-03
-3.098607528954744339e-03
-1.534562208689749241e-03
-7.135966327041387558e-03
9.425577707588672638e-03
-6.105298642069101334e-03
-6.005130242556333542e-03
1.922772452235221863e-02
-5.346400197595357895e-03
6.458716001361608505e-03
-7.742669433355331421e-03
-5.558616947382688522e-03
1.065056864172220230e-02
-7.622561417520046234e-03
-4.341188832768239081e-05
-7.837686687707901001e-03
-7.545084226876497269e-03
-4.480549134314060211e-03
5.381062161177396774e-03
2.190258353948593140e-03
-9.775698184967041016e-03
-5.346836056560277939e-03
1.454910822212696075e-02
6.647899746894836426e-03
5.380601156502962112e-03
-5.557933822274208069e-03
1.034616027027368546e-02
5.800005979835987091e-03
7.473075296729803085e-03
0.000000000000000000e+00
-3.135210135951638222e-04
9.056189810507930815e-06
1.115960162132978439e-02
6.889294832944869995e-03
3.444275818765163422e-03
-1.594362780451774597e-02
-5.557915195822715759e-03
6.765471771359443665e-03
3.031835658475756645e-03
7.354987319558858871e-03
-5.781234707683324814e-03
-5.160937085747718811e-03
8.459273376502096653e-04
6.461863871663808823e-03
-7.651520892977714539e-03
2.467031823471188545e-03
-5.112488754093647003e-03
-3.120671259239315987e-03
-4.281927365809679031e-03
8.216222748160362244e-03
-5.590762943029403687e-03
5.801796447485685349e-03
-7.263390813022851944e-03
-6.005015224218368530e-03
-5.442228633910417557e-03
-3.739447565749287605e-03
-1.289414335042238235e-02
-2.429794520139694214e-03
-3.546139458194375038e-03
-5.769616458564996719e-03
-9.841666324064135551e-04
2.500068396329879761e-03
-5.038956645876169205e-03
-1.373813953250646591e-03
1.484206994064152241e-03
-6.786113139241933823e-03
-4.109457135200500488e-03
-6.124901585280895233e-03
-8.644443005323410034e-03
-4.764971323311328888e-03
5.628172773867845535e-03
9.743603877723217010e-03
-6.002171896398067474e-03
1.860009506344795227e-02
-5.228049587458372116e-03
2.665172889828681946e-02
-5.346546880900859833e-03
6.860856432467699051e-03
-3.501778468489646912e-03
7.802463602274656296e-03
-5.436662118881940842e-03
-5.160994827747344971e-03
6.119420286267995834e-04
-5.305150058120489120e-03
-7.856545969843864441e-03
-6.039593834429979324e-03
-3.433637903071939945e-04
-2.154981193598359823e-04
-7.262684870511293411e-03
-7.145224604755640030e-03
-8.521593175828456879e-03
0.000000000000000000e+00
4.612463992089033127e-03
-3.794143674895167351e-03
-5.346823483705520630e-03
1.015180241665802896e-04
1.565677858889102936e-02
-4.027673974633216858e-03
4.325869493186473846e-03
-4.548025317490100861e-03
-5.161118227988481522e-03
-7.543631829321384430e-03
1.143687404692173004e-02
-4.900010768324136734e-03
-8.181979879736900330e-03
-7.849959656596183777e-03
-4.150101449340581894e-03
5.508306901901960373e-03
-6.108534988015890121e-03
-7.376131135970354080e-03
-9.887814521789550781e-03
-1.407124940305948257e-02
6.315295468084514141e-04
-1.833080500364303589e-02
1.295465044677257538e-03
-9.799229912459850311e-03
1.529801054857671261e-03
-5.155319813638925552e-03
-6.071304087527096272e-04
-1.100442954339087009e-03
1.333627849817276001e-02
-8.476821705698966980e-03
2.049222355708479881e-03
2.215687558054924011e-02
5.592167843133211136e-03
-5.123926792293787003e-03
4.565406125038862228e-03
3.741822438314557076e-03
-1.094028912484645844e-02
-8.234223350882530212e-03
7.123757386580109596e-04
2.858314663171768188e-03
-6.004517432302236557e-03
-1.129422103986144066e-03
-9.589434601366519928e-03
-6.717691197991371155e-03
-5.112924613058567047e-03
1.494376733899116516e-02
1.586502301506698132e-03
-1.267176587134599686e-02
-9.621156379580497742e-03
1.942082308232784271e-03
3.924827557057142258e-03
6.946753244847059250e-03
-6.515990942716598511e-03
-8.473264053463935852e-03
9.841741994023323059e-03
3.826539323199540377e-04
-5.557914264500141144e-03
1.833534426987171173e-02
-5.558635108172893524e-03
-1.686885766685009003e-02
-1.208601798862218857e-02
1.118566747754812241e-02
-4.618708044290542603e-03
-9.521310217678546906e-03
2.857985720038414001e-02
-5.558630917221307755e-03
8.724045008420944214e-03
9.295711293816566467e-03
8.452798239886760712e-03
7.266314700245857239e-03
-1.500077487435191870e-04
-9.017187170684337616e-03
6.300091277807950974e-03
-6.176238879561424255e-03
-5.028210114687681198e-03
-1.053260546177625656e-02
9.848130866885185242e-03
-8.955059573054313660e-03
-7.896758615970611572e-03
1.013777218759059906e-03
-5.228233523666858673e-03
1.305335573852062225e-02
-7.642768789082765579e-03
1.248671393841505051e-02
-5.753055214881896973e-03
7.593088317662477493e-03
2.149118576198816299e-03
-6.160574499517679214e-03
7.561705075204372406e-03
1.224282477051019669e-02
7.479896885342895985e-04
1.043726596981287003e-02
-9.975419379770755768e-03
7.688329555094242096e-03
-4.234712570905685425e-03
-7.745640352368354797e-03
-5.228531546890735626e-03
1.375906262546777725e-02
-9.227660484611988068e-03
-5.558375269174575806e-03
5.789447575807571411e-03
-1.376140513457357883e-03
-3.931399434804916382e-03
1.349988044239580631e-03
-2.559169894084334373e-03
8.809410035610198975e-03
-1.006431318819522858e-02
-7.513049989938735962e-03
7.815535180270671844e-03
-8.480353280901908875e-03
-8.222176693379878998e-03
-7.543637417256832123e-03
7.666908670216798782e-03
7.555223535746335983e-03
-1.762506086379289627e-03
-5.228547379374504089e-03
-1.299827732145786285e-02
3.933799918740987778e-03
-5.558496341109275818e-03
-8.465393446385860443e-03
-3.448682371526956558e-03
4.718921612948179245e-03
1.298009534366428852e-03
-4.086703120265156031e-04
-9.319634176790714264e-03
1.771562965586781502e-03
-7.934214547276496887e-03
-1.088735647499561310e-02
-3.626380581408739090e-03
-5.126039963215589523e-03
-5.558648146688938141e-03
-9.356189519166946411e-03
-7.614310365170240402e-03
-1.708098221570253372e-03
-5.993309430778026581e-03
1.775912358425557613e-03
1.411005947738885880e-02
-9.204564616084098816e-03
-8.200679905712604523e-03
-4.474763758480548859e-03
-7.299053017050027847e-03
1.108132954686880112e-02
-5.187166854739189148e-03
-5.346861202269792557e-03
-9.034873219206929207e-04
-1.315132901072502136e-02
-1.286918064579367638e-03
-7.154435152187943459e-04
-5.346634890884160995e-03
-8.827105164527893066e-03
-1.403807080350816250e-03
-5.126046016812324524e-03
1.532377093099057674e-03
-3.967346157878637314e-03
-2.482975367456674576e-03
-9.512640535831451416e-03
4.559081513434648514e-03
-4.310647200327366590e-04
8.654767647385597229e-03
5.903496639803051949e-04
-7.885329425334930420e-03
-6.005008704960346222e-03
-8.750409819185733795e-03
1.694200932979583740e-02
-9.855337440967559814e-03
-8.511687628924846649e-03
9.732662583701312542e-04
-1.031236373819410801e-03
-9.094924665987491608e-03
2.160301897674798965e-03
0.000000000000000000e+00
-2.631259558256715536e-04
-7.085494697093963623e-03
1.436939346604049206e-03
-7.966408506035804749e-03
-3.594920970499515533e-03
-1.853881962597370148e-02
3.785797161981463432e-03
1.752289757132530212e-02
-6.005214527249336243e-03
-3.229213412851095200e-03
-5.319257266819477081e-03
-2.581916982308030128e-03
-9.002192877233028412e-03
4.503881093114614487e-03
-7.702318020164966583e-03
-7.221221923828125000e-03
-6.005138624459505081e-03
8.923912420868873596e-03
-6.920039653778076172e-03
-6.266401614993810654e-03
-2.015452831983566284e-03
-5.227243062108755112e-03
-1.096912939101457596e-02
-1.883625052869319916e-03
-3.210448659956455231e-03
-5.061733536422252655e-03
-5.152462050318717957e-03
8.189764805138111115e-03
-6.412676535546779633e-03
9.938910603523254395e-03
-1.145370583981275558e-02
-1.105349883437156677e-02
-6.871921359561383724e-04
-9.026041254401206970e-03
-6.004542112350463867e-03
-5.346566904336214066e-03
1.210963539779186249e-02
-5.228405352681875229e-03
-1.113952882587909698e-02
-3.025670070201158524e-03
4.657372366636991501e-03
-9.219272062182426453e-03
-8.963255211710929871e-03
3.215633332729339600e-03
-5.154719576239585876e-03
-5.558537319302558899e-03
-6.658636033535003662e-03
-7.463791407644748688e-03
-5.558577366173267365e-03
-5.754463840276002884e-03
-6.189779844135046005e-03
-4.495790228247642517e-03
1.570251886732876301e-03
5.318699870258569717e-03
-5.904714576900005341e-03
-1.374615542590618134e-02
-5.224463995546102524e-03
-2.643532352522015572e-03
4.688722081482410431e-03
-1.489803753793239594e-02
1.273177214898169041e-03
2.831748453900218010e-03
-7.996902801096439362e-03
-1.639098627492785454e-03
-5.155377089977264404e-03
1.212580013088881969e-03
-5.557660013437271118e-03
-1.016706135123968124e-02
-1.194318290799856186e-02
-5.357597023248672485e-03
-6.633104290813207626e-03
-5.124378018081188202e-03
-5.592314060777425766e-03
-1.203191559761762619e-02
-3.800090780714526772e-05
-8.546221069991588593e-03
4.797095432877540588e-03
8.300852961838245392e-03
-3.888282226398587227e-03
-1.504331640899181366e-02
-6.469211075454950333e-03
8.446451276540756226e-03
-6.571870297193527222e-03
-8.549279533326625824e-03
9.032844565808773041e-03
-3.426188370212912560e-03
-5.454997997730970383e-03
-1.012307684868574142e-02
-5.160789471119642258e-03
9.740889072418212891e-03
-1.769849914126098156e-03
7.791339885443449020e-03
2.886142814531922340e-03
-6.706459913402795792e-03
-1.135017257183790207e-02
-8.470401167869567871e-03
8.466094732284545898e-03
2.772726002149283886e-04
-5.225334316492080688e-03
6.892460398375988007e-03
2.852847613394260406e-02
-7.015473674982786179e-03
7.978380657732486725e-03
0.000000000000000000e+00
-6.135151255875825882e-03
3.567147068679332733e-03
-5.266560707241296768e-03
-6.004823371767997742e-03
8.956627920269966125e-03
2.755618188530206680e-03
-9.481789544224739075e-03
-1.132000936195254326e-03
-9.213154204189777374e-03
3.722267691045999527e-03
-5.378663539886474609e-03
-6.002723239362239838e-03
-6.239578127861022949e-03
-8.139771409332752228e-03
-7.571177091449499130e-03
-5.112456157803535461e-03
-6.442251615226268768e-03
-6.291872356086969376e-03
0.000000000000000000e+00
1.992545463144779205e-02
-1.812848635017871857e-02
-1.022471953183412552e-02
-7.243046537041664124e-03
-8.862536400556564331e-03
6.354769691824913025e-03
1.120715029537677765e-02
-3.807961766142398119e-04
-9.718452580273151398e-03
3.565543098375201225e-03
-6.955408025532960892e-03
-5.125975236296653748e-03
6.237674038857221603e-03
-1.192133966833353043e-02
-7.113377563655376434e-03
-4.368172492831945419e-03
3.400884335860610008e-03
5.360183771699666977e-03
7.808276452124118805e-03
-9.581625461578369141e-03
-5.836163763888180256e-04
-3.575068898499011993e-03
8.450265740975737572e-04
2.485236851498484612e-03
1.055219955742359161e-02
4.850365687161684036e-03
-5.423166323453187943e-03
-8.916168473660945892e-03
5.838783108629286289e-04
-3.632299834862351418e-03
6.356310099363327026e-03
-5.861515644937753677e-03
-6.004451308399438858e-03
-5.071075167506933212e-03
1.023910567164421082e-02
-8.751891553401947021e-03
2.630580216646194458e-03
-6.690270733088254929e-03
-7.565855979919433594e-03
-3.821665188297629356e-03
-4.352821502834558487e-03
-1.048609148710966110e-02
2.093611843883991241e-02
-8.965676650404930115e-03
-7.745015434920787811e-03
9.800980798900127411e-03
-7.120566442608833313e-03
-2.422534395009279251e-03
-3.456500708125531673e-04
-7.308449130505323410e-03
1.112160389311611652e-03
-5.232943221926689148e-03
1.790340431034564972e-02
-6.003618240356445312e-03
6.419479381293058395e-03
-5.558121018111705780e-03
-7.145110052078962326e-03
-4.237171262502670288e-03
-2.820201625581830740e-04
-5.346336401998996735e-03
2.945407526567578316e-03
-7.355154491961002350e-03
-7.930351421236991882e-03
-5.161113105714321136e-03
5.560468416661024094e-03
6.311565171927213669e-03
-7.427174597978591919e-03
-2.932326402515172958e-03
-6.005128379911184311e-03
-6.157579831779003143e-03
-6.076644174754619598e-03
5.530484486371278763e-03
-5.557993426918983459e-03
-8.941557258367538452e-03
-7.875650189816951752e-03
-7.919918745756149292e-03
-6.302041001617908478e-03
1.321232505142688751e-02
-1.751988427713513374e-03
-7.146399002522230148e-03
1.337179075926542282e-02
-5.779310129582881927e-03
-5.558055825531482697e-03
-1.824800274334847927e-03
-6.005082279443740845e-03
-7.195203565061092377e-03
8.454506751149892807e-04
4.244796000421047211e-03
1.433953456580638885e-02
-9.135413914918899536e-03
-1.033405680209398270e-02
-3.862257814034819603e-03
9.708452969789505005e-03
-3.093392821028828621e-03
-5.915944348089396954e-04
7.812074385583400726e-03
-9.465965442359447479e-03
6.188686005771160126e-03
-6.709487177431583405e-03
6.838293629698455334e-04
-6.004777736961841583e-03
-2.661906648427248001e-03
-1.386701874434947968e-02
-4.124952945858240128e-03
-4.213741980493068695e-03
-9.771184995770454407e-03
-5.558109842240810394e-03
2.574628684669733047e-03
-1.011698693037033081e-02
9.802164509892463684e-03
1.319596823304891586e-02
-6.884285714477300644e-03
-3.576348070055246353e-03
9.074971079826354980e-03
-9.992784820497035980e-03
-6.005160044878721237e-03
-3.327833721414208412e-03
-7.145172450691461563e-03
-4.428086802363395691e-03
-5.890012253075838089e-03
-5.095557775348424911e-03
-5.600691307336091995e-03
-8.366391062736511230e-03
-5.558453034609556198e-03
4.059795290231704712e-03
-6.576167419552803040e-03
3.309703897684812546e-04
1.881284639239311218e-02
-4.386157263070344925e-03
-6.851122248917818069e-03
-8.768304251134395599e-03
-7.439529523253440857e-03
1.325805671513080597e-02
-5.228511057794094086e-03
-3.966631367802619934e-03
-9.488264098763465881e-03
1.700534834526479244e-03
-2.827077871188521385e-03
-4.384524654597043991e-03
-9.838456287980079651e-03
-9.184691123664379120e-03
1.043850439600646496e-03
1.075565721839666367e-02
1.704441965557634830e-03
-5.112981423735618591e-03
-3.596214577555656433e-03
-6.813138257712125778e-03
5.601971643045544624e-04
-5.558680277317762375e-03
-8.451312780380249023e-03
-3.404520917683839798e-03
1.035244567901827395e-04
-1.431598141789436340e-02
-1.802396378479897976e-03
-6.929664523340761662e-04
-6.775483023375272751e-03
-5.303699523210525513e-03
3.326035104691982269e-03
-1.171793974936008453e-02
-4.244074691087007523e-03
7.768198847770690918e-03
-2.036722376942634583e-03
7.964434102177619934e-03
-6.061556283384561539e-03
-1.212312933057546616e-02
2.480416791513562202e-03
1.075656246393918991e-02
-4.162854515016078949e-03
2.564080758020281792e-03
-1.331149600446224213e-02
-6.565537769347429276e-03
-1.010546926409006119e-02
-5.187451839447021484e-03
8.882383117452263832e-04
-1.003274926915764809e-03
1.299372757785022259e-03
-6.561609916388988495e-03
-7.596944458782672882e-03
5.301240831613540649e-03
-7.267293054610490799e-03
-7.813508622348308563e-03
-3.075996064580976963e-04
4.618279635906219482e-03
-7.049433887004852295e-03
1.742454431951045990e-02
6.830201949924230576e-03
-5.346708465367555618e-03
1.903972006402909756e-04
-6.005065515637397766e-03
7.803126703947782516e-03
-7.100614719092845917e-03
-9.289970621466636658e-03
1.627136953175067902e-02
-2.841402776539325714e-03
-1.027629617601633072e-02
3.260732395574450493e-03
-5.141456611454486847e-03
1.995170954614877701e-03
1.456958940252661705e-03
-7.544792257249355316e-03
-5.771968280896544456e-04
1.710167736746370792e-03
-7.902711629867553711e-03
3.656655782833695412e-03
-5.533666349947452545e-03
-6.668018177151679993e-03
-7.513428572565317154e-03
-2.592724980786442757e-03
6.019898690283298492e-03
-5.757389590144157410e-03
-5.114892497658729553e-03
-6.004651077091693878e-03
-5.227328278124332428e-03
1.118370890617370605e-02
-5.346713121980428696e-03
-2.679961966350674629e-03
-6.878698710352182388e-03
-7.088186684995889664e-03
6.600441876798868179e-03
3.932939725928008556e-04
-8.026300929486751556e-03
9.070104570128023624e-04
-1.132011227309703827e-02
-5.558417178690433502e-03
-5.585754290223121643e-03
-1.872952841222286224e-02
1.186435669660568237e-02
-9.875717572867870331e-03
1.054652035236358643e-02
3.534174291417002678e-03
5.567614061874337494e-05
4.795704502612352371e-03
-4.556070547550916672e-03
1.293134875595569611e-02
-5.160803440958261490e-03
-1.342076901346445084e-02
-6.673872470855712891e-03
-3.946368116885423660e-03
-7.231452502310276031e-03
-5.743175745010375977e-03
-3.746087430045008659e-03
-3.078042063862085342e-03
-6.551237311214208603e-03
-3.634294727817177773e-03
-7.435855455696582794e-03
-1.797672011889517307e-03
-5.346613470464944839e-03
4.777066875249147415e-03
-4.585427697747945786e-03
-4.141976591199636459e-03
5.685862270183861256e-04
-5.841396283358335495e-03
1.337561290711164474e-02
1.147123798727989197e-02
-9.423617273569107056e-03
7.378824520856142044e-03
-7.747849915176630020e-03
1.309666200540959835e-03
9.148756973445415497e-03
-1.942279865033924580e-03
1.244321186095476151e-02
1.132550090551376343e-02
-3.783696796745061874e-03
2.424574689939618111e-03
-5.045704543590545654e-03
-5.154755432158708572e-03
1.711190305650234222e-02
-1.800237689167261124e-03
-3.139412496238946915e-03
-4.224862437695264816e-03
6.324801361188292503e-04
7.595124654471874237e-03
1.354515459388494492e-02
-6.795138120651245117e-03
7.476850878447294235e-03
-5.112621467560529709e-03
-3.011747030541300774e-03
6.796069443225860596e-03
-1.156146079301834106e-02
3.146206960082054138e-03
-8.028196170926094055e-03
-4.347651731222867966e-03
8.105244487524032593e-03
-5.921070929616689682e-03
-2.746878657490015030e-03
-6.293025333434343338e-03
-1.026263739913702011e-02
-6.004090886563062668e-03
-2.390161156654357910e-03
-4.206812474876642227e-03
6.768495659343898296e-04
-4.480257630348205566e-03
9.673784486949443817e-03
-1.937289349734783173e-02
1.671383716166019440e-02
1.464032800868153572e-03
1.144625432789325714e-02
3.865871345624327660e-03
6.558332126587629318e-03
2.239131601527333260e-03
7.710406091064214706e-03
1.071008015424013138e-02
-6.603705696761608124e-03
-7.906704209744930267e-03
9.304314851760864258e-03
-8.663552813231945038e-03
-5.112888757139444351e-03
1.122657302767038345e-02
-5.353380460292100906e-03
2.220334718003869057e-03
-6.004652939736843109e-03
-6.374582648277282715e-03
-6.003109738230705261e-03
-6.002714857459068298e-03
-8.229685947299003601e-03
-5.228429101407527924e-03
1.212215144187211990e-02
7.715135812759399414e-03
-1.784002222120761871e-02
-6.571953184902667999e-03
-5.933475680649280548e-03
-8.598738349974155426e-03
9.088191203773021698e-03
-7.727709598839282990e-03
-5.558365024626255035e-03
-6.005228962749242783e-03
-5.408673081547021866e-03
1.193018816411495209e-02
-5.130702629685401917e-03
-8.174416609108448029e-03
-7.052066735923290253e-03
-7.655293215066194534e-03
1.151285483501851559e-03
-1.041437382809817791e-03
-9.262223728001117706e-03
1.207337621599435806e-02
8.432311937212944031e-03
4.742337856441736221e-03
9.730868041515350342e-03
8.783095516264438629e-03
-5.983028560876846313e-03
-5.160692613571882248e-03
1.240336243063211441e-02
-9.090578183531761169e-03
1.816160511225461960e-03
-6.005250383168458939e-03
-5.557902622967958450e-03
-2.390991430729627609e-03
-1.505464781075716019e-03
-1.690587960183620453e-03
-5.124601535499095917e-03
-9.400292299687862396e-03
3.173575736582279205e-03
-6.004261784255504608e-03
-6.004993338137865067e-03
4.057936370372772217e-03
3.702803514897823334e-03
-1.063918974250555038e-02
3.834711620584130287e-03
-2.941679442301392555e-03
6.964373402297496796e-03
7.979759946465492249e-03
-7.301283534616231918e-03
1.699903048574924469e-03
8.284932933747768402e-03
-4.812892526388168335e-03
-5.993877071887254715e-03
-7.363619282841682434e-03
-6.001942791044712067e-03
-5.552849732339382172e-03
5.956694018095731735e-03
-5.345914512872695923e-03
-8.880075998604297638e-03
-1.057080738246440887e-02
-3.248655004426836967e-03
-3.255308372899889946e-03
-5.125989671796560287e-03
-5.556773860007524490e-03
-7.432262413203716278e-03
-5.345415323972702026e-03
-7.023589219897985458e-03
-4.960967693477869034e-03
-5.558527074754238129e-03
-5.228511057794094086e-03
-7.017522118985652924e-03
-7.316008210182189941e-03
7.622311823070049286e-03
3.468865295872092247e-03
-1.012075226753950119e-02
-5.124621093273162842e-03
-4.127446096390485764e-03
-9.388705715537071228e-03
-6.005079485476016998e-03
5.268092267215251923e-03
-6.629197392612695694e-03
1.148796547204256058e-02
-6.004940718412399292e-03
8.156803436577320099e-03
8.681831881403923035e-03
-1.836013863794505596e-03
7.691012229770421982e-03
-6.003475748002529144e-03
5.096208769828081131e-03
-6.853168830275535583e-03
5.578569602221250534e-03
2.813837490975856781e-03
-2.204394666478037834e-03
-8.305059745907783508e-03
-2.181015908718109131e-03
-5.963475909084081650e-03
-9.633195586502552032e-03
-1.403933111578226089e-02
7.244869600981473923e-03
1.332154963165521622e-03
1.644885353744029999e-02
-5.558166652917861938e-03
1.675275526940822601e-02
-8.144091814756393433e-03
1.147080492228269577e-02
-1.006031408905982971e-02
-3.314187750220298767e-03
-7.268876768648624420e-03
-7.251212373375892639e-03
-4.048750735819339752e-03
-9.252288378775119781e-03
-1.604139222763478756e-03
-1.304399501532316208e-02
-9.519688785076141357e-03
-6.300976499915122986e-03
4.158972296863794327e-03
-3.883299184963107109e-03
7.475255406461656094e-04
-5.446569062769412994e-03
7.519024424254894257e-03
-1.084234006702899933e-02
4.781621508300304413e-03
-7.514159660786390305e-03
1.017010398209095001e-02
9.182819165289402008e-03
-4.293167032301425934e-03
2.136648399755358696e-03
-6.004440132528543472e-03
-9.487519972026348114e-03
-3.688702825456857681e-03
-5.126052070409059525e-03
1.604308839887380600e-03
1.300110714510083199e-03
-6.120606325566768646e-03
-3.552765352651476860e-03
-7.366523612290620804e-03
-8.891539648175239563e-03
-4.975088872015476227e-03
2.104454301297664642e-02
0.000000000000000000e+00
-4.298691637814044952e-03
-3.351932158693671227e-03
-9.557766839861869812e-03
-9.435749612748622894e-03
0.000000000000000000e+00
5.882021039724349976e-03
-1.507233548909425735e-02
1.898126676678657532e-02
1.123168040066957474e-02
-1.285398192703723907e-02
2.225372008979320526e-03
8.946076850406825542e-04
-9.120885282754898071e-03
-8.891167119145393372e-03
-8.617479354143142700e-03
-5.875127390027046204e-03
-8.158127777278423309e-03
2.641181694343686104e-03
-1.003327313810586929e-02
0.000000000000000000e+00
-8.165836334228515625e-03
1.163798442576080561e-04
-2.745996695011854172e-03
5.275106523185968399e-03
2.864805748686194420e-03
-1.825925894081592560e-03
-2.866916125640273094e-03
1.108267717063426971e-02
-9.320676326751708984e-03
-7.731898687779903412e-03
-8.016852661967277527e-03
7.419306784868240356e-03
-2.993956732098013163e-04
-7.827950641512870789e-03
1.401506643742322922e-02
-8.767446503043174744e-03
-4.255821462720632553e-03
8.613687008619308472e-03
1.542264036834239960e-02
-7.048949133604764938e-03
4.089601337909698486e-03
7.556684780865907669e-03
1.095321495085954666e-02
-5.649526137858629227e-03
-9.306187741458415985e-03
-6.005230359733104706e-03
-7.595432922244071960e-03
9.056610055267810822e-03
-8.484426653012633324e-04
-6.005135364830493927e-03
-1.127334404736757278e-02
-4.100895486772060394e-03
-5.112688522785902023e-03
-7.493193261325359344e-03
-1.236415933817625046e-02
1.271484885364770889e-02
-2.528230659663677216e-03
6.750089582055807114e-03
5.471902899444103241e-03
6.957003381103277206e-03
-4.347644746303558350e-03
5.742589011788368225e-03
-5.346630234271287918e-03
-8.508593775331974030e-03
-6.902502849698066711e-03
-5.557559896260499954e-03
-1.004072465002536774e-02
-5.474263802170753479e-03
-4.265524446964263916e-03
-8.566340431571006775e-03
-2.677552169188857079e-03
2.072833664715290070e-02
-9.969192557036876678e-03
-5.647022742778062820e-03
-5.722677335143089294e-03
-8.135280571877956390e-03
-5.558629054576158524e-03
-1.302652060985565186e-02
-8.790677529759705067e-04
5.858378484845161438e-03
7.917636074125766754e-03
7.608300540596246719e-03
-5.160875152796506882e-03
-1.326368656009435654e-02
-2.689400222152471542e-03
-7.398535381071269512e-04
1.982638612389564514e-03
-6.005116272717714310e-03
-8.753442205488681793e-03
-7.627593819051980972e-03
5.091328173875808716e-03
-1.047123409807682037e-02
-6.386895198374986649e-03
2.712597604840993881e-03
-2.323567867279052734e-03
-5.346598569303750992e-03
-8.484457619488239288e-03
-1.580809243023395538e-03
-9.627400897443294525e-03
-6.005147937685251236e-03
-7.491609081625938416e-03
-1.261155679821968079e-02
-7.423005532473325729e-03
-5.558608565479516983e-03
2.215641317889094353e-03
-7.442199159413576126e-03
-1.695135049521923065e-02
-7.024038583040237427e-03
-8.585995063185691833e-03
-5.814727395772933960e-03
-8.822070434689521790e-03
-7.934395223855972290e-03
-1.142605580389499664e-02
0.000000000000000000e+00
-1.150660589337348938e-02
-1.645540585741400719e-03
6.086665671318769455e-03
-8.372115902602672577e-03
-1.104988530278205872e-02
3.697350155562162399e-03
8.961213752627372742e-03
-9.121065959334373474e-03
-1.234746538102626801e-02
-2.884035697206854820e-03
-8.834618143737316132e-03
1.640197448432445526e-02
-4.295947030186653137e-03
-9.367841295897960663e-03
1.265567820519208908e-02
-5.998015869408845901e-03
-7.084359531290829182e-04
-7.804722990840673447e-03
5.626310594379901886e-03
3.862495534121990204e-03
9.896151022985577583e-04
-1.356357010081410408e-03
-6.306034047156572342e-03
1.398702431470155716e-02
-2.538521657697856426e-04
4.977570846676826477e-03
-1.233929023146629333e-02
-8.730432949960231781e-03
-3.415164770558476448e-03
-5.346596240997314453e-03
-1.840785727836191654e-03
1.002070773392915726e-02
-7.189309224486351013e-03
-5.126039497554302216e-03
-7.080757524818181992e-03
-1.303923130035400391e-02
-5.558367352932691574e-03
1.250551547855138779e-02
-4.449073690921068192e-03
-6.333172786980867386e-03
-5.592683795839548111e-03
3.921258728951215744e-03
-9.327736683189868927e-03
-6.274315528571605682e-03
-5.593212787061929703e-03
1.736131729558110237e-03
-7.666977122426033020e-03
2.072747237980365753e-02
5.712389945983886719e-03
-7.612821180373430252e-03
-8.249101229012012482e-03
-2.226186217740178108e-03
-2.049196977168321609e-03
-6.561214104294776917e-04
-7.453618571162223816e-03
1.607352867722511292e-02
-5.228380206972360611e-03
3.903729084413498640e-04
-1.434563938528299332e-02
-6.059054285287857056e-03
-5.715501029044389725e-03
-1.227751001715660095e-02
3.654471598565578461e-03
-1.792963012121617794e-03
-7.356565329246222973e-04
1.191510725766420364e-02
-7.734006270766258240e-03
-7.683659438043832779e-03
-7.295789662748575211e-03
-5.484304856508970261e-03
-1.147492457675980404e-05
6.292630452662706375e-03
-6.429850123822689056e-03
2.911932242568582296e-04
-1.104204636067152023e-02
-6.221333052963018417e-03
9.104305878281593323e-03
-5.557990167289972305e-03
-8.270659483969211578e-03
-6.004308816045522690e-03
2.900236053392291069e-03
-7.652764208614826202e-03
6.628259085118770599e-03
3.313081339001655579e-03
-6.968808360397815704e-03
-7.336517795920372009e-03
7.925404934212565422e-04
-1.163886766880750656e-02
-1.024452224373817444e-02
9.027965366840362549e-03
-4.896623548120260239e-03
-6.643561180680990219e-03
2.009673789143562317e-02
-5.345353391021490097e-03
-5.374765954911708832e-03
-6.005011033266782761e-03
6.826245225965976715e-03
-8.373847231268882751e-03
1.048583071678876877e-02
-9.436542168259620667e-03
-6.005239672958850861e-03
-7.909206673502922058e-03
1.228380366228520870e-03
-8.233955129981040955e-03
3.052068641409277916e-03
-5.292059388011693954e-03
-6.295582745224237442e-03
6.790244020521640778e-03
-2.255759667605161667e-03
-6.906886585056781769e-03
-3.410793375223875046e-03
-1.271922513842582703e-02
-1.092426665127277374e-02
2.553303260356187820e-03
-5.187055561691522598e-03
3.358967835083603859e-03
2.521603833884000778e-03
-1.342630945146083832e-03
3.255996853113174438e-03
-1.142700947821140289e-02
4.746622964739799500e-02
-5.225834902375936508e-03
5.641149473376572132e-04
-1.201529288664460182e-03
-5.499815102666616440e-03
-4.621481988579034805e-03
-5.245667416602373123e-03
-4.030099138617515564e-03
2.517898567020893097e-03
-7.343203760683536530e-03
-1.950739882886409760e-03
-5.660779774188995361e-03
6.112138275057077408e-03
7.135640829801559448e-03
-8.679967373609542847e-03
-2.784614916890859604e-03
-8.823467418551445007e-03
-1.395946368575096130e-03
6.909933872520923615e-04
-9.762884117662906647e-03
-5.228412803262472153e-03
-6.004828494042158127e-03
7.230747491121292114e-03
4.182251170277595520e-03
-8.470046333968639374e-03
1.301034633070230484e-02
-5.558631848543882370e-03
-7.752337493002414703e-03
