1.563928276300430298e-02 -4.791337251663208008e-02 -4.800990968942642212e-02 -2.223541587591171265e-02 -4.242774099111557007e-02 -2.355956844985485077e-02 -2.626614272594451904e-02 -2.155422978103160858e-02 -5.069373175501823425e-02 -4.237308353185653687e-02
7.718092296272516251e-03 -4.106201231479644775e-03 -4.991418216377496719e-03 3.303309902548789978e-02 -7.331880927085876465e-02 3.910709917545318604e-02 -5.368871241807937622e-02 -6.889723986387252808e-02 -3.296301886439323425e-02 4.581750556826591492e-02
-2.053445950150489807e-02 -5.642239749431610107e-02 -7.060042582452297211e-03 3.016206994652748108e-02 3.755094110965728760e-02 -6.134427711367607117e-02 4.159985110163688660e-02 -1.239052135497331619e-02 -4.996374621987342834e-02 2.115721814334392548e-02
-2.351444214582443237e-02 1.292940787971019745e-02 -6.982591003179550171e-02 -4.718473926186561584e-02 -1.362468861043453217e-02 3.501675650477409363e-02 -5.228366330265998840e-02 5.184690281748771667e-02 -2.221325971186161041e-02 -1.782837882637977600e-02
9.262615931220352650e-04 4.040629044175148010e-02 -7.035849557723850012e-05 -7.242336869239807129e-02 -3.638434782624244690e-02 -8.251999318599700928e-02 -6.023787707090377808e-02 -1.641260460019111633e-02 1.160326879471540451e-02 -6.942499428987503052e-02
-6.779310852289199829e-02 8.736745454370975494e-03 -2.119575254619121552e-02 -6.366938352584838867e-02 -6.119945645332336426e-02 4.327078908681869507e-02 -5.898202583193778992e-02 -7.628781348466873169e-02 -8.771899342536926270e-02 5.269919335842132568e-02
-5.614026635885238647e-02 -2.492461167275905609e-02 -5.669941753149032593e-02 -2.212304994463920593e-02 -8.468142710626125336e-03 3.797886520624160767e-02 6.420448888093233109e-03 -4.850779473781585693e-02 -2.334398031234741211e-02 8.348309434950351715e-03
-8.027337491512298584e-02 -1.274472102522850037e-02 -1.957044191658496857e-02 1.586815342307090759e-02 -8.837213367223739624e-02 1.145152673125267029e-01 2.770366519689559937e-02 -1.697717308998107910e-01 -1.157650374807417393e-03 2.662517502903938293e-02
8.814135193824768066e-02 -8.001648634672164917e-02 3.206409886479377747e-02 -7.393500953912734985e-02 -4.730083793401718140e-02 -1.012746058404445648e-02 1.778307487256824970e-03 7.563431281596422195e-03 1.585010811686515808e-02 4.103484004735946655e-02
-7.506904751062393188e-02 9.809476323425769806e-03 -1.568650826811790466e-02 3.158966079354286194e-02 2.726042270660400391e-02 2.584983222186565399e-02 -7.958827167749404907e-02 5.139602720737457275e-02 2.633093297481536865e-02 6.783968210220336914e-02
-4.147413000464439392e-02 4.836379550397396088e-03 1.913719438016414642e-02 2.025315724313259125e-02 2.421295829117298126e-02 -1.186017878353595734e-02 3.898710012435913086e-02 9.906508028507232666e-03 1.396719738841056824e-02 2.138422615826129913e-02
-1.051123738288879395e-01 -9.337408840656280518e-02 -2.802599221467971802e-02 -1.009340677410364151e-02 9.052717685699462891e-02 5.430659651756286621e-02 -4.231236502528190613e-02 -4.154745861887931824e-02 -9.214485436677932739e-02 2.405758132226765156e-04
-4.232633486390113831e-02 1.380372326821088791e-02 8.807968348264694214e-03 4.521689563989639282e-02 -6.113411858677864075e-02 -2.595369517803192139e-02 3.605753183364868164e-03 -7.200009375810623169e-02 -2.185727097094058990e-02 5.693139880895614624e-02
-4.823008924722671509e-02 -9.840964339673519135e-03 -2.802706137299537659e-02 5.961723625659942627e-02 -2.886429429054260254e-02 -3.062926605343818665e-02 2.008762583136558533e-02 -9.265568107366561890e-02 3.808653354644775391e-02 3.736073151230812073e-02
6.000129133462905884e-02 -2.964666113257408142e-02 2.917967364192008972e-02 -2.978820167481899261e-02 5.630022287368774414e-02 -5.577733367681503296e-02 -5.117741599678993225e-02 -2.071327529847621918e-03 -6.121617928147315979e-02 2.435819618403911591e-02
-6.329453736543655396e-02 5.825306102633476257e-02 -2.550485916435718536e-02 -8.193677663803100586e-02 -4.631525278091430664e-02 1.129481568932533264e-02 1.942414231598377228e-02 -2.781354356557130814e-03 9.558172896504402161e-04 -4.249831661581993103e-03
3.681616857647895813e-02 5.890768952667713165e-04 2.064533717930316925e-02 -5.762815847992897034e-02 -7.497212849557399750e-03 3.497478738427162170e-02 1.227479521185159683e-02 1.305540930479764938e-02 -6.070109456777572632e-02 -1.839694567024707794e-02
8.991091512143611908e-03 -7.105908542871475220e-02 -7.109253108501434326e-02 -1.664679730311036110e-03 -2.117869071662425995e-02 4.632636904716491699e-02 2.189645776525139809e-03 -1.901516132056713104e-02 5.784300342202186584e-02 -4.188163578510284424e-02
1.140416692942380905e-02 3.180587664246559143e-02 1.316256006248295307e-03 4.795683547854423523e-02 -2.143433876335620880e-02 6.659362465143203735e-02 3.948595374822616577e-02 -5.155727267265319824e-02 -2.157322131097316742e-02 -6.687468383461236954e-03
1.694987155497074127e-02 4.336503893136978149e-02 5.957268550992012024e-02 -2.796411886811256409e-02 -2.345104701817035675e-02 -6.809001415967941284e-02 5.818093940615653992e-02 3.836878761649131775e-02 -5.094018206000328064e-02 -5.069214850664138794e-02
5.779807642102241516e-02 -2.816818654537200928e-02 -1.080649625509977341e-02 -3.867869824171066284e-02 2.046106569468975067e-02 -4.238281771540641785e-02 1.007472425699234009e-01 -8.579473942518234253e-02 -7.868853211402893066e-02 -3.970533609390258789e-02
-1.460963487625122070e-02 1.388639863580465317e-02 -1.613799016922712326e-03 -3.082182630896568298e-02 5.879985168576240540e-02 -1.519620884209871292e-02 4.100037738680839539e-03 1.253638882189989090e-02 -2.886263653635978699e-02 -4.602417349815368652e-02
-5.472367256879806519e-02 3.383617848157882690e-03 -1.594885252416133881e-02 -1.450179889798164368e-02 -5.542854592204093933e-02 3.635304514318704605e-03 -1.001167576760053635e-02 1.151818409562110901e-02 7.226605433970689774e-03 -2.023903280496597290e-02
-4.532851278781890869e-02 4.831044375896453857e-02 -4.069979768246412277e-03 4.550586268305778503e-02 -6.322117894887924194e-02 3.317503258585929871e-02 -5.600669607520103455e-02 -7.418288383632898331e-03 5.966896936297416687e-02 1.017747540026903152e-02
-5.669926851987838745e-02 -4.290167987346649170e-02 -4.989404231309890747e-02 4.684756323695182800e-02 -1.947474479675292969e-02 -1.886992529034614563e-02 -2.589142695069313049e-02 5.371772870421409607e-02 3.457972779870033264e-02 1.909970305860042572e-02
-3.135995194315910339e-02 2.361833030590787530e-04 -7.088467478752136230e-02 -4.050716385245323181e-02 5.627235025167465210e-02 2.844343706965446472e-02 -4.412579163908958435e-02 1.260680984705686569e-02 -3.518153727054595947e-02 1.838283427059650421e-02
4.688091203570365906e-02 1.520312763750553131e-02 4.692815989255905151e-02 5.202596075832843781e-03 -6.983260810375213623e-02 -4.243713617324829102e-02 -6.123438477516174316e-02 -3.575168922543525696e-02 -4.608558490872383118e-03 -1.722748950123786926e-02
1.689089462161064148e-02 2.589767239987850189e-02 4.168949276208877563e-02 3.512135148048400879e-02 -2.768026106059551239e-02 2.687172405421733856e-02 -7.606565952301025391e-02 -1.407088711857795715e-02 -6.475754827260971069e-02 4.601213708519935608e-02
2.015830390155315399e-02 -1.289860717952251434e-02 1.650475524365901947e-02 -3.223622590303421021e-02 4.338752478361129761e-02 -2.547249943017959595e-02 -3.274347633123397827e-02 -1.645888551138341427e-03 -3.193132206797599792e-02 -3.111885488033294678e-02
-6.003690883517265320e-02 6.829710304737091064e-02 -7.534533739089965820e-02 -9.068579971790313721e-02 6.203403323888778687e-02 -4.695020616054534912e-02 -4.350648075342178345e-02 -8.073233813047409058e-02 -2.067180164158344269e-02 -8.200256526470184326e-02
-4.227963462471961975e-02 4.059720039367675781e-02 -8.606014400720596313e-02 -2.338716946542263031e-02 -6.616286188364028931e-02 1.837322255596518517e-03 3.186430782079696655e-02 -2.433595620095729828e-02 9.519476443529129028e-02 4.849522188305854797e-02
5.058271344751119614e-03 -2.507310546934604645e-02 4.295247420668601990e-02 1.097339205443859100e-02 -6.116006523370742798e-03 1.029109302908182144e-02 -5.599046126008033752e-02 -6.795541942119598389e-02 3.297650441527366638e-02 1.285037770867347717e-02
6.683852057904005051e-03 -3.367220982909202576e-02 -8.526387065649032593e-02 3.656085580587387085e-02 2.408606000244617462e-02 9.247629903256893158e-03 -7.984505593776702881e-02 4.838689416646957397e-02 3.257368505001068115e-02 2.551337704062461853e-02
-3.450746461749076843e-02 -6.805417686700820923e-02 4.718478769063949585e-02 -2.896541357040405273e-02 -5.364547669887542725e-02 3.441325947642326355e-02 -6.465376820415258408e-03 4.839368909597396851e-02 2.934554591774940491e-02 -2.719073789194226265e-03
-5.110616795718669891e-03 -5.439272895455360413e-02 -7.731239497661590576e-02 2.350243739783763885e-02 6.137060374021530151e-02 -9.874866157770156860e-02 -6.477927789092063904e-03 -5.907813459634780884e-02 -3.533278405666351318e-02 2.278729341924190521e-02
3.440114483237266541e-02 -5.830070376396179199e-02 -1.824193820357322693e-02 2.768043242394924164e-02 -1.620978303253650665e-02 1.502112019807100296e-02 1.371831167489290237e-02 -2.549540251493453979e-02 -5.194972455501556396e-02 -7.871547341346740723e-02
5.937064439058303833e-02 -1.742128096520900726e-02 -3.469733893871307373e-02 -5.416943132877349854e-02 5.168839171528816223e-02 -8.861038833856582642e-02 -1.641401648521423340e-02 -6.233470141887664795e-02 6.142495572566986084e-02 -6.462658755481243134e-03
2.672146307304501534e-03 -2.549676597118377686e-02 2.446909202262759209e-03 -1.245704758912324905e-02 3.681821376085281372e-02 -3.586092218756675720e-02 -6.088778749108314514e-02 6.095033138990402222e-02 2.418694458901882172e-02 -2.246069349348545074e-02
-4.346512258052825928e-02 -2.901580743491649628e-02 5.883052572607994080e-02 -2.202326059341430664e-02 -3.419050201773643494e-02 -1.675903797149658203e-02 2.805203199386596680e-02 -5.338841304183006287e-02 -3.935632109642028809e-02 5.071417242288589478e-02
6.449069827795028687e-02 -5.193053930997848511e-02 2.651605056598782539e-03 5.506974644958972931e-03 -8.299513719975948334e-03 -5.012059956789016724e-02 -1.736156269907951355e-02 2.867238828912377357e-03 -2.582618035376071930e-02 5.090897530317306519e-02
2.520957402884960175e-02 -7.051495462656021118e-02 -1.710225362330675125e-03 -9.929367341101169586e-03 -6.186281889677047729e-02 -4.517724364995956421e-02 -5.482485517859458923e-02 6.378842983394861221e-03 -6.722438335418701172e-02 2.280896157026290894e-02
-2.327643521130084991e-02 -3.726352006196975708e-02 2.350362390279769897e-02 6.500700861215591431e-02 -1.501353736966848373e-02 1.405243482440710068e-02 -6.745241582393646240e-02 -5.432603880763053894e-02 -7.503010332584381104e-03 -3.397412225604057312e-02
-5.780121684074401855e-02 -2.667564339935779572e-02 -6.898453086614608765e-02 -6.093420460820198059e-02 -2.105260267853736877e-03 -2.872082963585853577e-02 5.535895004868507385e-03 5.280392616987228394e-02 3.202378749847412109e-02 4.340557008981704712e-02
6.169746816158294678e-02 -6.747893244028091431e-02 1.908521167933940887e-02 -7.034990936517715454e-02 1.190324500203132629e-02 5.274934694170951843e-02 -3.058746224269270897e-04 -6.334535777568817139e-02 -1.211456768214702606e-02 -3.209956735372543335e-02
-5.347311124205589294e-02 -5.903892219066619873e-02 -1.200997643172740936e-02 2.694416232407093048e-02 4.048091173171997070e-02 1.820791885256767273e-02 5.149824917316436768e-02 5.706978961825370789e-02 -3.602012619376182556e-02 1.979318633675575256e-02
-1.523886527866125107e-02 -2.700674161314964294e-02 -3.223896026611328125e-02 -1.732374355196952820e-02 -6.635472178459167480e-02 -6.342898122966289520e-03 7.482013106346130371e-02 -6.645352393388748169e-02 8.767738007009029388e-03 -2.741971053183078766e-02
3.122197091579437256e-02 6.333184242248535156e-02 -7.151279598474502563e-02 2.262496203184127808e-02 -6.649381667375564575e-02 3.032356500625610352e-02 -3.677514195442199707e-02 -5.098287761211395264e-02 -1.218317169696092606e-02 -1.488276477903127670e-02
2.197789773344993591e-02 -4.965078830718994141e-02 7.672537863254547119e-02 3.882172703742980957e-02 6.281376630067825317e-02 7.350330799818038940e-02 -4.702446237206459045e-02 -5.263863876461982727e-02 -6.837556511163711548e-02 -9.179906547069549561e-02
-4.711875692009925842e-02 2.550181746482849121e-02 9.251336567103862762e-03 4.269631206989288330e-02 1.918052323162555695e-02 2.276656217873096466e-02 -3.798766434192657471e-02 3.020684001967310905e-03 5.462981387972831726e-02 -3.440469270572066307e-03
3.527002781629562378e-02 2.660735696554183960e-02 3.405686840415000916e-02 1.799463294446468353e-02 1.112285722047090530e-02 4.870039597153663635e-02 6.231811270117759705e-02 4.978917166590690613e-02 -4.773546382784843445e-02 -3.622459620237350464e-02
1.296078413724899292e-01 -5.552136898040771484e-02 -6.227702274918556213e-02 -8.253610879182815552e-02 8.310046046972274780e-02 -3.473613038659095764e-02 -4.429692029953002930e-02 -7.084815949201583862e-02 -4.899025335907936096e-02 4.806514456868171692e-02
3.046379797160625458e-02 -3.351591527462005615e-02 -4.550094902515411377e-02 -4.289631173014640808e-02 5.212708190083503723e-02 1.975387521088123322e-02 -1.975268824025988579e-03 2.792924083769321442e-02 5.249747633934020996e-02 5.766389891505241394e-02
-4.482357949018478394e-02 -7.669415324926376343e-03 -8.004214614629745483e-03 -6.570805609226226807e-02 -9.140241891145706177e-03 -7.252920884639024734e-03 -5.739153921604156494e-02 1.095554046332836151e-02 4.509172588586807251e-02 2.219229377806186676e-02
-3.415157273411750793e-02 2.688963152468204498e-02 -5.448382347822189331e-02 7.898403331637382507e-03 -7.192148268222808838e-02 -3.951213508844375610e-02 1.273281034082174301e-02 -6.039617955684661865e-02 4.930570349097251892e-02 -6.246101483702659607e-02
3.113598749041557312e-02 -3.251674398779869080e-02 -8.177774958312511444e-03 -5.970878899097442627e-02 2.986170910298824310e-02 -5.876430869102478027e-02 -4.847171902656555176e-02 2.462490461766719818e-02 -4.301920905709266663e-02 -6.174868717789649963e-02
-6.434259563684463501e-02 2.673057839274406433e-02 -7.962100207805633545e-02 -7.175288349390029907e-02 -5.609059706330299377e-02 -1.462065521627664566e-02 -2.692317962646484375e-02 -4.617993533611297607e-02 2.051758579909801483e-02 -1.510055363178253174e-02
-5.824876576662063599e-02 5.933583900332450867e-02 -1.090383306145668030e-01 7.617840915918350220e-02 5.706201121211051941e-02 -3.112356737256050110e-02 -5.269627645611763000e-02 1.949189230799674988e-02 -5.003722384572029114e-02 -6.568003445863723755e-02
2.704969607293605804e-02 -2.143793553113937378e-02 -3.585046902298927307e-02 3.769843280315399170e-02 -7.748273015022277832e-02 -1.027026306837797165e-02 5.899791046977043152e-02 4.381201043725013733e-02 -7.702257484197616577e-02 -7.945705950260162354e-02
6.410964578390121460e-02 -5.602180212736129761e-02 6.199007481336593628e-02 1.963905990123748779e-02 -3.329055383801460266e-02 -3.551383689045906067e-02 5.062634125351905823e-02 -8.168597519397735596e-02 -4.907329380512237549e-02 -9.542888402938842773e-02
5.071136355400085449e-02 3.840563818812370300e-02 5.357812717556953430e-02 -3.509700298309326172e-02 -2.163997665047645569e-02 -2.460039034485816956e-02 6.917040050029754639e-02 -5.243855714797973633e-02 -5.618447903543710709e-03 -1.401636097580194473e-02
-3.038835711777210236e-02 -8.049902319908142090e-02 -7.095019519329071045e-02 -4.009572044014930725e-02 -3.584428876638412476e-02 4.133772850036621094e-02 -8.041202276945114136e-02 -1.650291308760643005e-02 -9.770488739013671875e-02 9.129285812377929688e-02
-5.810016021132469177e-02 6.563249230384826660e-02 -2.135133184492588043e-02 1.744560897350311279e-02 3.754942491650581360e-02 -3.921486064791679382e-02 2.110602334141731262e-02 8.328660577535629272e-02 -2.555817365646362305e-02 -6.916894018650054932e-02
1.760020293295383453e-02 2.091719023883342743e-02 -4.130687564611434937e-02 -2.671066857874393463e-02 -5.288705602288246155e-02 7.306355237960815430e-02 -3.255860507488250732e-02 7.110479474067687988e-02 -5.075156688690185547e-02 1.052143634296953678e-03
-1.883181370794773102e-02 -7.006702572107315063e-02 -2.413720637559890747e-02 4.362473636865615845e-02 1.601098687388002872e-03 -4.754608497023582458e-02 1.584218069911003113e-02 -8.369477093219757080e-02 5.055455490946769714e-02 -4.874187987297773361e-03
3.229249641299247742e-02 2.142496034502983093e-02 -3.265387564897537231e-02 2.672580815851688385e-02 -1.326588913798332214e-03 -3.894530236721038818e-02 1.537743257358670235e-03 -1.889082253910601139e-03 6.317560374736785889e-02 3.758727572858333588e-03
5.704341828823089600e-02 -3.202221542596817017e-02 1.394095644354820251e-02 -6.351763755083084106e-02 -7.287523150444030762e-02 -2.908414043486118317e-02 3.493680432438850403e-02 -6.620492041110992432e-02 4.161139205098152161e-02 -3.180842474102973938e-02
-5.919457599520683289e-02 -2.887599915266036987e-02 -3.176717832684516907e-02 -1.132608950138092041e-01 -4.797409102320671082e-02 -2.381346933543682098e-02 5.723686516284942627e-02 -6.678943336009979248e-02 3.096948564052581787e-02 -4.339956678450107574e-03
3.079885803163051605e-02 6.703589111566543579e-02 5.201704800128936768e-02 7.014513015747070312e-02 -6.766869872808456421e-02 -9.247293695807456970e-03 1.474846526980400085e-02 6.075567100197076797e-03 -2.705938555300235748e-02 -2.247934788465499878e-02
-2.086815983057022095e-02 -8.588707074522972107e-03 -5.047199130058288574e-02 -8.113060146570205688e-03 6.209851801395416260e-02 -3.846584586426615715e-03 1.189035549759864807e-02 5.751084908843040466e-02 4.027621820569038391e-02 -3.759436309337615967e-02
-4.372298344969749451e-02 6.018235161900520325e-02 1.687408890575170517e-03 -6.718511693179607391e-03 7.641222327947616577e-02 -1.229820027947425842e-02 5.744770169258117676e-02 -2.129611745476722717e-02 5.505918338894844055e-02 -7.651969790458679199e-02
-7.613636553287506104e-02 5.870043113827705383e-02 -6.055556982755661011e-02 -4.930127412080764771e-02 2.186672296375036240e-03 -3.417056426405906677e-02 1.302192918956279755e-02 6.954789906740188599e-02 2.137451805174350739e-02 5.488521605730056763e-02
4.251068457961082458e-02 -5.492524057626724243e-02 5.798316095024347305e-03 8.573121391236782074e-03 -3.027937933802604675e-02 -1.644543930888175964e-02 -6.314584612846374512e-02 -8.169154822826385498e-02 -1.424787915311753750e-03 5.243669822812080383e-02
6.380785256624221802e-02 7.032505422830581665e-02 -2.645553648471832275e-02 -1.612508483231067657e-02 -4.752874746918678284e-02 -6.197692081332206726e-02 1.982518099248409271e-02 1.318301912397146225e-02 -6.654299795627593994e-02 -6.541547179222106934e-02
3.749381750822067261e-02 -2.439818717539310455e-02 2.848923765122890472e-02 -1.804214902222156525e-02 -6.127875298261642456e-02 7.783544715493917465e-03 1.699342019855976105e-02 -6.418664008378982544e-02 -3.078225068747997284e-02 -1.871094293892383575e-02
3.056726232171058655e-02 -4.058080725371837616e-03 1.311197993345558643e-03 -4.358270391821861267e-02 4.938841611146926880e-02 -1.347086578607559204e-02 6.933842319995164871e-03 -4.225324466824531555e-02 -1.540860626846551895e-02 -3.316370304673910141e-03
-5.209250003099441528e-02 -3.099671006202697754e-02 4.692750796675682068e-02 2.827190235257148743e-02 3.949801903218030930e-03 1.371285226196050644e-02 2.287462539970874786e-02 5.581098608672618866e-03 3.280595690011978149e-02 -7.667195051908493042e-02
-1.839450187981128693e-02 7.015499472618103027e-02 -4.677983745932579041e-02 -7.908002473413944244e-03 -1.595630683004856110e-02 -9.999842196702957153e-02 3.048162162303924561e-02 5.457916855812072754e-02 5.211034789681434631e-02 -9.344004094600677490e-02
-3.331483528017997742e-02 -3.660218790173530579e-02 -3.895044699311256409e-02 -6.824017502367496490e-03 2.317454293370246887e-02 -3.938598185777664185e-02 5.429017543792724609e-02 3.149992227554321289e-02 8.455429226160049438e-03 2.159471914637833834e-04
-6.680675595998764038e-02 -6.814243737608194351e-03 5.232242494821548462e-02 -8.588283509016036987e-02 1.380570605397224426e-02 3.584178537130355835e-02 7.535587996244430542e-02 -2.913485281169414520e-03 5.824904516339302063e-02 -6.905856728553771973e-02
1.733034849166870117e-02 6.240631639957427979e-02 -5.580884218215942383e-02 -1.707523688673973083e-02 5.007135216146707535e-03 -5.299443844705820084e-03 1.804377511143684387e-02 -3.381508588790893555e-02 4.462202638387680054e-02 1.349770277738571167e-02
1.535993441939353943e-02 -5.099745467305183411e-02 -2.937171421945095062e-02 3.884597867727279663e-02 3.963268548250198364e-02 1.393573265522718430e-02 -5.689923092722892761e-02 -2.775792777538299561e-02 3.877812251448631287e-02 -4.852361232042312622e-02
-4.507098346948623657e-03 1.508844667114317417e-03 1.979857450351119041e-03 -4.549505561590194702e-02 4.557910189032554626e-02 -7.144777476787567139e-02 5.256474390625953674e-02 -1.067232713103294373e-01 1.758333481848239899e-02 -7.283888012170791626e-02
-7.588204741477966309e-02 -3.874235320836305618e-03 -1.298462599515914917e-02 -5.151770543307065964e-03 -2.648784220218658447e-02 -2.462716028094291687e-02 4.191616922616958618e-02 -6.439071893692016602e-02 -2.898244746029376984e-02 2.858160994946956635e-02
6.066035479307174683e-02 -5.316619575023651123e-02 5.623732507228851318e-02 7.704657316207885742e-02 1.383449533022940159e-03 6.030036136507987976e-02 2.740493044257164001e-02 5.882170423865318298e-02 1.237716618925333023e-02 -7.346054911613464355e-02
-4.210701212286949158e-02 1.659265533089637756e-02 -6.558436900377273560e-02 -1.781338127329945564e-03 -1.780091784894466400e-02 -1.888646930456161499e-02 3.078832663595676422e-02 -2.332317410036921501e-03 3.917048871517181396e-02 6.433174945414066315e-03
-6.252081692218780518e-02 3.588251397013664246e-02 -3.919137641787528992e-02 6.380926072597503662e-02 5.744970962405204773e-02 1.642381213605403900e-02 -5.437041819095611572e-02 -4.885419458150863647e-02 -3.978707268834114075e-02 -5.710800737142562866e-02
-7.730217278003692627e-02 6.304018199443817139e-02 -7.296306639909744263e-02 -1.027193441987037659e-01 4.529781267046928406e-02 -5.978746339678764343e-02 6.223130598664283752e-02 1.420388463884592056e-02 -6.562325637787580490e-03 -1.308436989784240723e-01
-3.893720859196037054e-04 7.375894486904144287e-02 4.936458170413970947e-02 -4.524787142872810364e-02 -4.768728278577327728e-03 -5.216249078512191772e-02 2.255847211927175522e-03 -6.976834684610366821e-02 3.319349884986877441e-02 -1.197622343897819519e-02
-1.489729806780815125e-02 -3.532499447464942932e-02 5.496591329574584961e-02 7.955297082662582397e-02 -6.917058676481246948e-02 5.945271253585815430e-02 -6.258518248796463013e-02 -1.365166157484054565e-01 3.172519430518150330e-02 -9.484694339334964752e-03
4.683031514286994934e-02 4.729830846190452576e-02 3.629972785711288452e-02 -5.443117395043373108e-02 -5.836845934391021729e-02 6.504130363464355469e-02 1.542701851576566696e-02 7.136426120996475220e-02 5.876163765788078308e-02 7.917497307062149048e-03
5.558517761528491974e-03 4.201394319534301758e-02 3.314371779561042786e-02 3.624844923615455627e-02 -1.036565052345395088e-03 -1.868459209799766541e-02 -3.042175807058811188e-02 5.852093547582626343e-02 4.748009145259857178e-03 -8.090210030786693096e-04
7.503205537796020508e-02 5.732612311840057373e-02 3.542224317789077759e-02 1.715629943646490574e-03 3.915488254278898239e-03 -1.326127676293253899e-03 2.947640605270862579e-02 -6.824515014886856079e-02 -2.710813656449317932e-02 -2.591586671769618988e-02
-1.752229034900665283e-02 -1.154131721705198288e-02 9.776534512639045715e-03 7.175007462501525879e-02 -1.857221499085426331e-02 -5.510617513209581375e-03 -3.456560894846916199e-02 -2.818611264228820801e-02 -2.229819074273109436e-02 -6.591715663671493530e-02
-1.019360572099685669e-01 -2.934047579765319824e-02 -4.285283759236335754e-02 7.622549682855606079e-02 -2.777253044769167900e-03 -8.854521065950393677e-02 -4.539227113127708435e-02 2.413280308246612549e-02 2.601804584264755249e-02 2.358654886484146118e-02
6.035142019391059875e-02 -7.502665370702743530e-02 -4.243694990873336792e-02 6.274593621492385864e-02 -1.097066700458526611e-02 -5.014779977500438690e-03 2.286709612235426903e-03 -1.374557428061962128e-02 -9.574296884238719940e-03 -5.551620200276374817e-02
4.844912514090538025e-02 4.750607907772064209e-02 -9.009831584990024567e-03 5.566365644335746765e-02 1.207066234201192856e-02 -4.189177602529525757e-02 3.885559365153312683e-02 -5.633551627397537231e-02 5.861170217394828796e-02 -5.268234759569168091e-02
6.820750236511230469e-02 -4.227616637945175171e-02 -8.605431020259857178e-02 1.317218225449323654e-02 -5.868136882781982422e-02 3.362520784139633179e-02 -3.182969242334365845e-02 -7.990764081478118896e-02 -9.356059134006500244e-02 6.465303152799606323e-02
-2.825601771473884583e-02 -6.622596830129623413e-02 -5.245016887784004211e-02 -5.117648467421531677e-02 -2.384163253009319305e-02 1.416176371276378632e-02 5.734632536768913269e-02 5.508194491267204285e-02 -8.163183182477951050e-02 -5.166443437337875366e-02
-7.131496816873550415e-02 -6.357071548700332642e-02 -7.639861851930618286e-02 5.736614763736724854e-02 -9.289994835853576660e-02 1.188125014305114746e-01 -5.757099390029907227e-02 -1.647031009197235107e-01 -1.596034690737724304e-02 -2.919762954115867615e-02
2.232498489320278168e-02 3.118032217025756836e-02 2.027370780706405640e-02 5.067940801382064819e-02 -3.545311838388442993e-02 -6.177143007516860962e-02 -6.800006330013275146e-02 -5.807620007544755936e-03 1.350194308906793594e-02 3.465645760297775269e-02
5.867586284875869751e-02 -5.144862830638885498e-02 -5.599304288625717163e-02 -5.666598305106163025e-02 2.172595076262950897e-02 4.165792837738990784e-02 5.576039850711822510e-02 2.370244823396205902e-02 4.206515476107597351e-02 4.042112827301025391e-02
-4.287623986601829529e-02 1.342400442808866501e-02 -6.234299764037132263e-02 -1.197707802057266235e-01 1.578764175064861774e-03 4.766445234417915344e-02 2.665395103394985199e-02 1.134267225861549377e-01 -7.663171738386154175e-02 -1.208572089672088623e-01
-2.664286270737648010e-02 3.184200450778007507e-02 -8.685601502656936646e-02 3.411570191383361816e-02 -1.283372044563293457e-01 -2.633874304592609406e-02 1.502215117216110229e-02 -1.700773835182189941e-01 -6.865273416042327881e-02 -1.087067797780036926e-01
-1.395361125469207764e-02 -6.341403722763061523e-02 -6.876058876514434814e-03 -1.555429026484489441e-02 6.351968646049499512e-02 4.536055028438568115e-02 4.331937432289123535e-02 -1.353010535240173340e-02 -1.830044388771057129e-02 -5.652302503585815430e-02
-1.868897303938865662e-02 -3.614834323525428772e-02 2.882663905620574951e-02 3.498545289039611816e-02 -2.659376768860965967e-04 8.083079941570758820e-03 -7.514539361000061035e-02 -1.024404555209912360e-04 -5.004944652318954468e-02 -8.047173917293548584e-02
-9.012716263532638550e-02 -2.290528640151023865e-02 -7.418531924486160278e-02 -1.662309020757675171e-01 9.138865768909454346e-02 -5.488828569650650024e-02 -1.464868038892745972e-01 -1.236338615417480469e-01 -4.859074577689170837e-02 3.514736518263816833e-02
-5.396795645356178284e-02 -8.414272964000701904e-02 -6.984078884124755859e-02 5.083297565579414368e-02 -6.569898873567581177e-02 -5.616968870162963867e-02 -2.644350379705429077e-02 -1.074113324284553528e-02 -4.284849762916564941e-02 1.385445799678564072e-02
6.564443558454513550e-02 -4.328989610075950623e-02 7.261598110198974609e-02 1.799625717103481293e-02 1.975183188915252686e-02 -7.726308703422546387e-02 4.172335565090179443e-02 -5.317041277885437012e-02 3.750734031200408936e-02 -2.035165205597877502e-02
5.575343593955039978e-02 -3.463311120867729187e-02 2.486063633114099503e-03 -5.037168785929679871e-02 -1.289644045755267143e-03 -3.977511450648307800e-02 4.985015466809272766e-02 -4.154127091169357300e-02 -5.558513570576906204e-03 -8.543646335601806641e-02
1.145628839731216431e-02 8.046200126409530640e-02 3.537763655185699463e-02 -6.146303843706846237e-03 2.560756355524063110e-02 -6.172522529959678650e-02 5.450956989079713821e-03 2.947949059307575226e-02 3.604539111256599426e-02 9.825419634580612183e-03
3.450855985283851624e-02 3.225869685411453247e-02 -7.332260161638259888e-02 6.517769396305084229e-02 5.027453973889350891e-02 4.651505872607231140e-02 -2.099882811307907104e-02 2.544767223298549652e-02 1.930824294686317444e-02 -3.529609367251396179e-02
-5.439398065209388733e-02 3.592166304588317871e-02 3.078557550907135010e-02 3.130599483847618103e-02 -7.129312958568334579e-03 -2.435410209000110626e-02 3.360282257199287415e-02 -3.883422911167144775e-02 -3.803727030754089355e-02 -3.803713619709014893e-02
6.017918884754180908e-02 5.278563871979713440e-02 -7.303121685981750488e-02 -1.050983667373657227e-01 1.780704781413078308e-02 -4.382193461060523987e-02 5.114301294088363647e-02 5.152270942926406860e-02 6.274814903736114502e-02 4.526820778846740723e-02
4.806368798017501831e-02 -7.528495043516159058e-03 1.971324533224105835e-02 5.522990599274635315e-03 5.171575769782066345e-02 -4.381461068987846375e-02 4.265569522976875305e-02 -9.329863637685775757e-02 4.468605294823646545e-02 -7.109017670154571533e-02
6.413069367408752441e-02 -4.207491502165794373e-02 -7.454311102628707886e-02 5.881790444254875183e-02 3.080188482999801636e-02 1.935673132538795471e-02 -5.229898542165756226e-02 2.089418284595012665e-02 -1.279187388718128204e-03 -5.346893332898616791e-03
-5.192577838897705078e-02 -2.474409341812133789e-02 3.790907934308052063e-02 -6.000519543886184692e-02 1.341595314443111420e-02 -4.942554607987403870e-02 4.528494924306869507e-02 3.535165265202522278e-02 -3.866600990295410156e-02 2.136974781751632690e-02
-9.898721240460872650e-03 -9.222203493118286133e-02 -4.127822816371917725e-02 -1.964264921844005585e-02 2.682370878756046295e-02 4.788051918148994446e-02 -2.803090587258338928e-02 1.726096309721469879e-02 6.899093091487884521e-02 -5.726477131247520447e-02
-3.278048709034919739e-02 -6.044721975922584534e-02 -5.408010259270668030e-02 9.577018767595291138e-02 5.292879068292677402e-04 -1.848607324063777924e-02 -1.037318538874387741e-02 -4.609053954482078552e-02 -3.993516787886619568e-02 -4.085731506347656250e-02
5.951841920614242554e-02 -6.045243516564369202e-02 -3.919672220945358276e-02 -8.640952408313751221e-03 -8.664422482252120972e-02 3.373402729630470276e-02 -1.889596506953239441e-02 5.480477586388587952e-02 4.173237830400466919e-03 -7.557611912488937378e-02
6.883726269006729126e-02 1.507825031876564026e-02 3.283429890871047974e-03 -3.003619238734245300e-02 -1.111613470129668713e-03 -2.657194621860980988e-03 2.988757006824016571e-02 9.009608626365661621e-02 -5.084565654397010803e-02 3.246159479022026062e-02
2.088991366326808929e-02 1.307948958128690720e-03 7.055560592561960220e-03 -5.728930607438087463e-02 1.046533510088920593e-02 4.925202205777168274e-02 5.409971997141838074e-02 3.644288331270217896e-02 5.958169326186180115e-02 5.762435495853424072e-02
-4.990518558770418167e-03 -6.307870894670486450e-02 5.133901536464691162e-02 -2.859876118600368500e-02 -6.217845901846885681e-02 -2.189923450350761414e-02 -4.570366442203521729e-02 -2.638279274106025696e-02 -7.295976579189300537e-02 -7.711988687515258789e-02
-5.587506666779518127e-02 -6.275396794080734253e-02 -2.576444298028945923e-02 -7.800286263227462769e-02 -4.900717735290527344e-02 -1.884708367288112640e-02 -7.921545952558517456e-02 8.913263678550720215e-02 2.338506095111370087e-02 1.871148124337196350e-02
-2.099761180579662323e-02 -5.309876799583435059e-02 3.753076121211051941e-02 -8.539975434541702271e-02 2.939945086836814880e-02 -6.076746061444282532e-02 -4.650522023439407349e-02 1.769934408366680145e-02 -8.361000567674636841e-02 -8.191746473312377930e-02
1.103653851896524429e-02 -7.185769826173782349e-02 -1.051302417181432247e-03 6.118641421198844910e-02 2.981989085674285889e-02 3.294226527214050293e-02 -4.337439313530921936e-02 -1.760353520512580872e-02 -6.370558589696884155e-02 3.428583592176437378e-02
-5.195467919111251831e-02 -2.652053907513618469e-02 -2.886512875556945801e-02 4.893548786640167236e-02 4.999196156859397888e-02 2.631567604839801788e-02 1.869977451860904694e-02 6.067400053143501282e-02 2.669732831418514252e-02 6.925606727600097656e-02
-3.169358521699905396e-02 3.865073993802070618e-02 -6.888262182474136353e-02 2.281162701547145844e-02 -7.396990060806274414e-02 2.217586152255535126e-02 3.424253314733505249e-02 3.241664962843060493e-03 5.129171907901763916e-02 -6.223427876830101013e-02
-3.088797815144062042e-02 -3.158282861113548279e-02 1.861832919530570507e-03 -1.787324994802474976e-02 8.398007485084235668e-04 -5.605906620621681213e-02 2.495443448424339294e-02 1.362601015716791153e-02 1.043432764708995819e-02 6.177655234932899475e-02
-6.191673874855041504e-02 5.645097792148590088e-02 5.839721858501434326e-02 1.010454539209604263e-02 5.299821868538856506e-02 3.004730679094791412e-02 -7.011838257312774658e-02 -9.939916431903839111e-03 -3.292957693338394165e-02 4.015051294118165970e-03
5.673413723707199097e-02 -1.329343859106302261e-02 2.375261485576629639e-02 4.226838052272796631e-02 3.723598644137382507e-02 -6.847017258405685425e-02 -5.934567749500274658e-02 4.383126739412546158e-03 5.344362929463386536e-02 2.244370058178901672e-02
-7.493489421904087067e-03 -2.921105735003948212e-02 -1.654189545661211014e-03 -3.263024985790252686e-02 -1.735927350819110870e-02 -4.532665014266967773e-02 -1.818352937698364258e-02 5.637432634830474854e-02 4.923753440380096436e-02 -6.059683859348297119e-02
8.294694870710372925e-02 3.964111581444740295e-02 5.522848665714263916e-02 4.122240934520959854e-03 1.979009062051773071e-02 3.491123393177986145e-02 -7.527532428503036499e-02 5.307117849588394165e-02 5.868960916996002197e-02 3.677934408187866211e-02
4.251805320382118225e-02 4.535192623734474182e-03 -4.232093319296836853e-02 -6.218926236033439636e-02 4.248046316206455231e-03 9.552716277539730072e-03 -5.200304463505744934e-02 1.139102131128311157e-02 -8.608280681073665619e-03 1.406687777489423752e-02
-6.177489832043647766e-02 1.666860654950141907e-02 -2.030720189213752747e-02 3.798634186387062073e-02 -1.270396169275045395e-02 4.087474197149276733e-02 -5.085402727127075195e-02 -3.806582465767860413e-02 2.524791471660137177e-02 -4.087996110320091248e-02
4.836940392851829529e-02 -4.232969880104064941e-02 -6.279428489506244659e-03 -1.131933927536010742e-02 -8.967833966016769409e-02 1.728678867220878601e-02 7.944891601800918579e-02 2.220162888988852501e-03 -1.654745824635028839e-02 7.271117530763149261e-03
1.440011523663997650e-02 -6.698895990848541260e-02 -9.258474409580230713e-02 -6.586510688066482544e-02 2.530927211046218872e-02 -2.142132958397269249e-03 -4.483049362897872925e-02 -2.312362194061279297e-02 3.544044122099876404e-02 -6.567724794149398804e-02
-8.145111054182052612e-02 -5.679671466350555420e-02 3.894961997866630554e-02 2.995454519987106323e-02 -6.865812093019485474e-02 -2.820773050189018250e-02 -3.478712216019630432e-02 -5.984652787446975708e-02 6.166310235857963562e-02 -6.898172199726104736e-02
-1.112485378980636597e-01 2.666480839252471924e-02 1.093834489583969116e-01 -9.653102606534957886e-02 -5.504056438803672791e-02 -8.083281666040420532e-02 2.527835080400109291e-03 -9.531458467245101929e-02 -1.723541878163814545e-02 -5.905110388994216919e-02
1.209553256630897522e-01 -1.198335140943527222e-01 -2.730174548923969269e-02 1.595597527921199799e-02 -4.167224839329719543e-02 6.826632190495729446e-03 -1.648053526878356934e-02 -4.682255536317825317e-02 3.645517304539680481e-02 -4.592699557542800903e-02
-4.261290654540061951e-02 3.559201583266258240e-02 -9.943815320730209351e-02 5.689192563295364380e-02 5.349648743867874146e-02 -3.231584792956709862e-03 -3.527699038386344910e-02 -4.697705619037151337e-03 -5.538539215922355652e-02 -1.810923963785171509e-02
2.109741233289241791e-02 5.329452455043792725e-02 5.742483958601951599e-02 -1.001080870628356934e-01 -2.876003459095954895e-02 5.970992147922515869e-02 2.471052855253219604e-02 -6.899071484804153442e-02 -4.161133989691734314e-02 -5.409552529454231262e-02
8.915446698665618896e-02 -7.771258056163787842e-02 4.094491899013519287e-02 2.112990804016590118e-02 -6.851209700107574463e-02 3.037202544510364532e-02 -4.393373429775238037e-02 2.231899090111255646e-02 -4.946055635809898376e-02 -4.930181428790092468e-02
-2.828127518296241760e-02 8.886992000043392181e-03 -3.225270286202430725e-02 6.031412258744239807e-02 -5.038472637534141541e-02 5.218521133065223694e-02 1.950669661164283752e-02 3.136244416236877441e-02 3.217385383322834969e-03 5.774629302322864532e-03
4.955822974443435669e-02 3.228656575083732605e-02 5.354049615561962128e-03 1.317332778126001358e-02 3.263106942176818848e-02 -2.530557475984096527e-02 8.838332723826169968e-04 -1.936375163495540619e-02 6.315021961927413940e-02 -1.943359896540641785e-02
2.872641012072563171e-02 -6.399070471525192261e-02 -3.883638605475425720e-02 -3.403167799115180969e-02 -4.147984087467193604e-03 -6.331621110439300537e-02 -2.203927375376224518e-02 3.466404508799314499e-03 5.613745748996734619e-02 5.525774508714675903e-02
3.020873293280601501e-02 -9.053365141153335571e-02 -3.005998209118843079e-02 4.991563037037849426e-03 2.585502807050943375e-03 -2.230292558670043945e-02 -7.075629383325576782e-02 -6.918352097272872925e-02 2.276609651744365692e-02 -3.164432477205991745e-03
1.389880198985338211e-03 -9.699797257781028748e-03 -4.930474609136581421e-02 2.684393525123596191e-02 -3.766082972288131714e-02 -6.946505513042211533e-03 1.333519443869590759e-02 -7.430362701416015625e-02 -4.136878624558448792e-02 -4.514175653457641602e-02
-2.857578359544277191e-02 -1.107658892869949341e-01 -4.172758758068084717e-02 -7.002558559179306030e-02 5.832580849528312683e-02 8.180360496044158936e-02 -1.004396937787532806e-02 -1.340589672327041626e-01 -9.911301732063293457e-02 -5.484024528414011002e-03
3.348061442375183105e-02 2.885211817920207977e-02 -3.616897389292716980e-02 -7.546462118625640869e-02 -4.864606633782386780e-02 -3.908481076359748840e-02 6.318250671029090881e-04 5.658319592475891113e-02 1.809837482869625092e-02 3.836239874362945557e-02
-7.202413678169250488e-02 6.555469334125518799e-02 -2.202782593667507172e-02 -1.785436123609542847e-01 -4.591639339923858643e-01 -2.700507640838623047e-01 -6.721641868352890015e-02 4.345762357115745544e-02 -1.525045335292816162e-01 2.061828672885894775e-01
-5.065194331109523773e-03 2.985096350312232971e-02 2.715706266462802887e-02 1.939440262503921986e-03 5.539253726601600647e-02 -2.548602409660816193e-03 2.248649485409259796e-02 5.451540648937225342e-02 3.392484504729509354e-03 -3.945857658982276917e-02
4.304363578557968140e-02 -2.782706543803215027e-02 -6.920047104358673096e-02 1.794887892901897430e-02 6.753564625978469849e-02 2.750750817358493805e-02 -9.645439684391021729e-02 9.404693730175495148e-03 -3.148270770907402039e-02 -3.099264577031135559e-03
3.296161070466041565e-02 1.507072523236274719e-02 -5.277554504573345184e-03 -2.933929674327373505e-02 2.897867746651172638e-02 9.514754638075828552e-03 -3.807390108704566956e-02 -1.599285937845706940e-02 4.597254842519760132e-02 1.801828294992446899e-02
-6.280990783125162125e-03 -2.304581925272941589e-02 1.619582809507846832e-02 1.000745818018913269e-01 -4.779068380594253540e-02 -1.085795685648918152e-01 1.551677938550710678e-02 7.984250038862228394e-02 3.457921743392944336e-02 1.988326571881771088e-02
-6.958749145269393921e-02 -4.677593708038330078e-03 -1.427273638546466827e-02 -5.900103971362113953e-02 -4.320608451962471008e-02 4.507438838481903076e-02 -5.513199791312217712e-02 3.445885702967643738e-02 -1.679915376007556915e-02 -6.791471689939498901e-02
2.503094263374805450e-02 2.015904523432254791e-02 -2.186989597976207733e-02 -4.879598319530487061e-02 -2.692620642483234406e-02 -9.285970591008663177e-03 6.149425730109214783e-02 6.517883390188217163e-02 4.477202147245407104e-02 -6.706613302230834961e-02
1.808340661227703094e-02 1.333397813141345978e-02 -7.087246328592300415e-02 5.310519039630889893e-02 2.302734926342964172e-02 -7.179076224565505981e-02 -6.787204742431640625e-02 -9.409878402948379517e-02 2.482440881431102753e-02 4.251750186085700989e-02
2.011294290423393250e-02 6.103427335619926453e-02 2.905009128153324127e-02 -5.950118601322174072e-02 2.909416146576404572e-02 1.610494591295719147e-02 5.274007096886634827e-02 -7.120200246572494507e-02 -5.920409038662910461e-02 3.081913851201534271e-02
2.028710581362247467e-02 1.452168356627225876e-02 -1.142289023846387863e-02 -5.396584421396255493e-02 5.140577442944049835e-03 -4.052486643195152283e-02 3.441173583269119263e-02 3.047986701130867004e-02 -3.715477138757705688e-02 -6.407948583364486694e-02
-6.764459609985351562e-02 3.613102436065673828e-02 1.214320305734872818e-02 -1.163638904690742493e-01 -9.777925908565521240e-02 -7.904394716024398804e-02 3.683599829673767090e-02 7.235801219940185547e-02 5.239913612604141235e-02 5.393997579813003540e-02
-9.471578150987625122e-02 3.860929980874061584e-02 2.704086154699325562e-02 1.358523126691579819e-02 -6.394783407449722290e-02 -7.743655145168304443e-02 2.855105325579643250e-02 -2.822434529662132263e-03 4.149116948246955872e-02 -6.169319525361061096e-02
-2.945715375244617462e-02 8.867808431386947632e-02 -7.635115087032318115e-02 -8.925324678421020508e-02 1.232063630595803261e-03 -3.383936733007431030e-02 -5.039649829268455505e-02 3.830734640359878540e-02 5.472575873136520386e-02 -2.205343544483184814e-02
9.667008183896541595e-03 -3.794229775667190552e-02 -4.507559910416603088e-02 -9.755180217325687408e-03 -1.355606224387884140e-02 -6.234839931130409241e-02 -2.229960635304450989e-02 1.725482009351253510e-02 5.982723832130432129e-02 -1.424322556704282761e-02
-1.736305840313434601e-02 -5.033276230096817017e-02 3.725890070199966431e-02 4.555046558380126953e-02 -1.069719903171062469e-02 -4.011514782905578613e-02 1.564232632517814636e-02 9.530430659651756287e-03 5.343186855316162109e-02 5.188758298754692078e-02
4.089559894055128098e-03 -2.351715601980686188e-02 -7.261010259389877319e-02 -5.970592051744461060e-02 -1.076554693281650543e-02 -5.136622488498687744e-02 6.327083706855773926e-02 -3.002773597836494446e-02 -1.964465901255607605e-02 4.196210950613021851e-02
4.443714022636413574e-02 6.444118916988372803e-02 -2.039308845996856689e-02 -4.625235497951507568e-02 -2.004481852054595947e-03 -2.227784693241119385e-02 6.724177300930023193e-02 -1.026736199855804443e-02 -4.282276332378387451e-02 -4.014874994754791260e-02
6.299761007539927959e-04 2.833606861531734467e-02 4.248482361435890198e-02 5.719897150993347168e-02 -6.389309465885162354e-02 4.331566393375396729e-02 4.736478254199028015e-02 -2.110748924314975739e-02 1.684199087321758270e-02 2.243025228381156921e-02
6.034985557198524475e-02 3.816764336079359055e-03 4.807149525731801987e-03 6.341229891404509544e-04 5.286514759063720703e-02 6.400798447430133820e-03 -3.293837606906890869e-02 7.955172657966613770e-02 -1.702299341559410095e-03 2.382280863821506500e-02
-5.178003758192062378e-02 5.504489690065383911e-02 -5.189575999975204468e-02 -8.322420530021190643e-03 -6.481608003377914429e-02 -3.519480675458908081e-02 -2.473493106663227081e-02 -6.394823640584945679e-02 4.646394401788711548e-02 3.513124957680702209e-02
6.782120466232299805e-02 2.590702846646308899e-02 -9.082349948585033417e-03 4.538337886333465576e-02 8.138234168291091919e-02 -4.430490359663963318e-02 5.098072439432144165e-02 3.644962236285209656e-02 4.997496306896209717e-02 4.190395027399063110e-02
6.043289974331855774e-02 -8.144333958625793457e-02 -4.651340190321207047e-03 7.613246142864227295e-02 2.631397917866706848e-03 -8.007103949785232544e-02 -4.573180899024009705e-02 2.214123681187629700e-02 -6.056048348546028137e-02 -5.709514394402503967e-02
3.460186719894409180e-02 2.936522103846073151e-02 -6.255063414573669434e-02 -3.940127044916152954e-02 -2.931084297597408295e-02 -6.485764682292938232e-02 -3.151362016797065735e-02 2.360821142792701721e-02 4.349857196211814880e-02 -2.813050523400306702e-03
-2.055254578590393066e-02 -4.560966044664382935e-02 -3.785271896049380302e-03 -2.816755091771483421e-03 1.225692033767700195e-02 -3.473987430334091187e-02 -1.057547703385353088e-02 -4.221831634640693665e-02 -1.033361535519361496e-02 7.512014359235763550e-02
-7.002043275861069560e-05 -6.237219274044036865e-02 2.744501270353794098e-02 -6.086019426584243774e-02 5.798020213842391968e-02 6.760524213314056396e-02 4.123935103416442871e-02 -1.308875810354948044e-02 1.616079360246658325e-02 4.215430095791816711e-02
-3.852894902229309082e-02 6.311825662851333618e-02 -2.611830085515975952e-02 -5.625642836093902588e-02 3.792750462889671326e-02 -3.976015001535415649e-02 2.484804391860961914e-02 -6.729662418365478516e-03 2.477049455046653748e-02 -6.183400750160217285e-02
-3.290085494518280029e-02 2.394557371735572815e-02 -4.559313878417015076e-02 -5.689311400055885315e-02 -5.817541107535362244e-02 5.388258025050163269e-02 -4.370180517435073853e-02 3.491853596642613411e-03 -7.900245487689971924e-03 2.383775822818279266e-02
-5.818203091621398926e-02 2.965308167040348053e-02 1.340871583670377731e-02 6.408292800188064575e-02 -3.403883194550871849e-03 -8.267612010240554810e-02 1.965370960533618927e-02 -8.957910537719726562e-02 2.996446378529071808e-02 2.693993970751762390e-02
-4.433340206742286682e-02 -1.549055147916078568e-02 -2.852191030979156494e-02 3.374914079904556274e-02 1.223552040755748749e-02 -5.268778279423713684e-02 -3.801199048757553101e-02 3.747637942433357239e-02 -1.259038504213094711e-02 4.589644074440002441e-02
3.530881553888320923e-02 -3.678564727306365967e-02 3.444692865014076233e-02 1.496797986328601837e-02 -6.017837300896644592e-02 2.946079894900321960e-02 8.670995943248271942e-03 -7.879802025854587555e-03 4.233975335955619812e-02 3.494259715080261230e-02
-5.891213193535804749e-02 5.784958600997924805e-02 -5.474693700671195984e-02 3.064092993736267090e-02 1.823839545249938965e-02 2.677101828157901764e-02 -1.724855415523052216e-02 2.162238396704196930e-02 3.569073602557182312e-02 -4.938763752579689026e-02
-4.867589101195335388e-02 2.824354916810989380e-02 -5.829257518053054810e-02 -7.243841886520385742e-02 4.272475093603134155e-02 5.121343582868576050e-02 -5.785796046257019043e-02 -9.874068200588226318e-04 3.762392699718475342e-02 -6.289717555046081543e-02
-8.461479842662811279e-02 -7.484924048185348511e-02 -1.562804915010929108e-02 -1.714074425399303436e-02 1.009895280003547668e-02 1.609951816499233246e-02 7.208567578345537186e-03 -8.828785270452499390e-02 -5.264367535710334778e-02 -6.259682029485702515e-02
1.465632580220699310e-02 -5.153621360659599304e-02 -1.069903280586004257e-02 5.656223744153976440e-02 5.970293283462524414e-02 2.895800955593585968e-02 -7.423046976327896118e-02 -4.955209046602249146e-02 -1.492669712752103806e-02 3.557599708437919617e-02
-2.920431783422827721e-03 -2.743980288505554199e-02 2.776708081364631653e-02 -5.135888978838920593e-02 3.109589219093322754e-02 7.588111329823732376e-04 2.553250454366207123e-02 3.205131739377975464e-02 3.429638594388961792e-02 3.596974164247512817e-02
-7.361749559640884399e-02 -4.876707121729850769e-02 -5.431872606277465820e-02 5.781125649809837341e-02 4.876551777124404907e-02 -5.332783609628677368e-02 1.976433442905545235e-03 -8.782223798334598541e-03 -5.261938646435737610e-02 -6.409453600645065308e-02
-5.148198455572128296e-02 -5.931977555155754089e-02 -3.348125889897346497e-02 3.760455176234245300e-02 2.362947911024093628e-02 5.025005713105201721e-02 4.101699963212013245e-02 9.235934354364871979e-03 -5.007185041904449463e-02 -5.616934224963188171e-02
5.285868886858224869e-03 -7.729277759790420532e-02 -2.604652941226959229e-02 -1.299228817224502563e-01 -4.124743863940238953e-02 -4.054680466651916504e-02 8.452683687210083008e-02 -6.165470927953720093e-02 -3.423281246796250343e-03 -4.730932414531707764e-02
5.026995390653610229e-02 -6.669281516224145889e-03 -3.923078253865242004e-02 -1.882425881922245026e-02 1.867182366549968719e-02 -1.937739178538322449e-02 6.863625347614288330e-02 5.992636457085609436e-02 2.081804908812046051e-02 -7.256077975034713745e-02
-7.423001527786254883e-02 3.214120492339134216e-02 -4.728820919990539551e-02 -2.662360481917858124e-02 2.380608394742012024e-02 5.090766772627830505e-02 4.504588246345520020e-02 -1.098543312400579453e-02 4.970747232437133789e-02 7.987765967845916748e-02
1.843137107789516449e-02 -2.359879761934280396e-02 1.541858538985252380e-02 8.453229442238807678e-03 -6.386633962392807007e-02 -6.494643539190292358e-02 5.474736168980598450e-02 -4.423070698976516724e-03 2.999854832887649536e-02 -4.631410539150238037e-02
-3.094308543950319290e-03 -9.263316541910171509e-02 -7.731828838586807251e-02 -6.478156149387359619e-02 -2.333859726786613464e-02 6.557051092386245728e-02 4.772020503878593445e-02 -5.725431814789772034e-02 2.786357328295707703e-02 -4.078917205333709717e-02
4.818268120288848877e-02 -2.431163750588893890e-02 -8.698374149389564991e-04 3.386560827493667603e-02 9.852548129856586456e-03 7.837760262191295624e-03 6.099665537476539612e-02 -7.086392492055892944e-02 3.026338526979088783e-03 2.165521122515201569e-02
-7.824713736772537231e-02 -2.592403814196586609e-02 3.584824874997138977e-02 9.640305652283132076e-04 4.467926546931266785e-02 -4.527377709746360779e-02 2.393856458365917206e-02 1.066426746547222137e-02 3.229272365570068359e-02 2.146033383905887604e-02
-4.284168779850006104e-02 -3.852764889597892761e-02 2.980165742337703705e-02 -9.026462794281542301e-04 -5.272890627384185791e-02 7.838661968708038330e-02 8.988743647933006287e-03 -1.035797670483589172e-01 5.345257464796304703e-03 -7.343554496765136719e-02
-8.128852397203445435e-02 -7.437909394502639771e-02 5.402020364999771118e-02 -7.182428985834121704e-02 1.482557877898216248e-02 -2.015101164579391479e-02 7.057946175336837769e-02 3.086534887552261353e-02 -1.043246872723102570e-02 -7.661095261573791504e-02
-5.547566339373588562e-02 -2.271220460534095764e-02 -1.433376315981149673e-02 3.584186360239982605e-02 3.349468111991882324e-02 -9.920629672706127167e-03 -5.674023181200027466e-02 -2.528138644993305206e-02 -4.411044716835021973e-02 -2.789169363677501678e-02
7.588340342044830322e-02 -3.388840705156326294e-02 -5.339660868048667908e-02 -4.385489970445632935e-02 2.692625857889652252e-02 7.421839516609907150e-03 -4.273737594485282898e-02 -3.169352561235427856e-02 -7.392557710409164429e-02 2.451447583734989166e-02
3.266829252243041992e-02 -5.793710425496101379e-02 6.017002835869789124e-02 6.102821975946426392e-02 -4.850595816969871521e-02 -1.217631623148918152e-01 -1.285952478647232056e-01 -3.179965168237686157e-02 -2.493650419637560844e-03 2.773717977106571198e-02
-7.243038713932037354e-02 -1.207669172435998917e-02 -6.542617920786142349e-04 6.740243732929229736e-02 4.776202887296676636e-02 3.142067044973373413e-02 -3.228539600968360901e-02 3.136429190635681152e-02 2.004894800484180450e-02 5.450445786118507385e-02
5.320528894662857056e-02 -3.212134167551994324e-02 1.434076949954032898e-02 -5.816670507192611694e-02 -3.033666685223579407e-02 3.224463760852813721e-02 5.940748378634452820e-03 3.651810809969902039e-02 2.274649450555443764e-04 5.726112797856330872e-02
-3.962679207324981689e-02 6.848916411399841309e-02 -6.379505991935729980e-02 -4.085437208414077759e-02 -3.099301271140575409e-02 1.822489686310291290e-02 6.684265285730361938e-02 -1.604955494403839111e-01 -2.147588506340980530e-02 -3.687560791149735451e-03
-3.180097043514251709e-02 6.753548979759216309e-02 -4.285814985632896423e-02 4.309527575969696045e-02 1.694792136549949646e-02 -6.440699566155672073e-03 1.865855045616626740e-02 -6.770902872085571289e-02 -2.983582951128482819e-02 6.968636065721511841e-02
-5.330824851989746094e-02 3.022697195410728455e-02 -6.021052971482276917e-02 1.373236067593097687e-02 9.462386369705200195e-03 -4.319357126951217651e-02 -2.630953304469585419e-02 5.156025663018226624e-02 4.516522213816642761e-02 2.581141330301761627e-02
-1.179424952715635300e-02 -4.733302071690559387e-02 -4.259871691465377808e-02 -6.631217431277036667e-03 2.863510744646191597e-03 -6.676442921161651611e-02 -3.307666629552841187e-02 5.489257723093032837e-02 -7.257599383592605591e-02 3.161034360527992249e-02
1.435186900198459625e-02 -2.958450466394424438e-02 -6.171533092856407166e-02 2.551124431192874908e-02 1.115522384643554688e-01 -7.486912608146667480e-02 -7.436431944370269775e-02 -4.102019220590591431e-02 -3.436867520213127136e-02 -2.548776939511299133e-02
6.011988595128059387e-02 -1.446981262415647507e-02 -2.823403105139732361e-02 1.287540886551141739e-02 -5.123725533485412598e-02 -5.169827491044998169e-02 2.044146507978439331e-02 -6.916254758834838867e-02 4.472742974758148193e-02 -6.583724915981292725e-02
-6.612500548362731934e-02 -3.371191397309303284e-02 -7.686670124530792236e-02 -2.807965502142906189e-02 -7.647094875574111938e-02 1.754914177581667900e-03 5.486789345741271973e-02 1.647590473294258118e-02 -6.162183359265327454e-02 -6.114307418465614319e-02
-2.345275878906250000e-02 2.355174347758293152e-02 -4.670520871877670288e-02 -3.135429322719573975e-02 4.193796962499618530e-02 -5.076730623841285706e-02 4.138626158237457275e-02 -1.225130632519721985e-02 -4.845650121569633484e-02 3.934080526232719421e-02
1.992480643093585968e-02 5.557342991232872009e-02 5.103066563606262207e-02 3.915698826313018799e-02 -3.994164243340492249e-02 4.500349983572959900e-02 4.696975648403167725e-02 -5.065321549773216248e-02 5.527297779917716980e-02 1.026918645948171616e-02
-4.934570752084255219e-03 -6.101772189140319824e-02 -7.454428076744079590e-02 -5.933364108204841614e-02 -2.383910305798053741e-02 -1.471566385589540005e-03 2.507086610421538353e-04 -1.514696050435304642e-02 7.306180894374847412e-03 4.832413792610168457e-02
-6.022294610738754272e-02 9.927851147949695587e-03 3.049579262733459473e-02 3.438853472471237183e-02 -1.438462734222412109e-02 5.941336229443550110e-02 5.657624825835227966e-02 -1.859038323163986206e-02 4.223404079675674438e-02 3.131623938679695129e-02
-7.297545671463012695e-03 -4.188809543848037720e-02 -4.503337293863296509e-02 -6.162644550204277039e-02 -1.681249216198921204e-02 -1.264966651797294617e-02 8.673121780157089233e-02 1.034879591315984726e-03 -5.045284982770681381e-03 -5.749653559178113937e-03
3.607132658362388611e-02 5.190807208418846130e-02 -6.602827459573745728e-02 6.807753816246986389e-03 -9.883911162614822388e-02 -2.961742319166660309e-02 -1.281734742224216461e-02 -7.614065706729888916e-02 -5.285611376166343689e-03 2.908252924680709839e-02
-6.365820020437240601e-02 -5.517430603504180908e-02 3.674515336751937866e-02 -9.152889251708984375e-03 -3.697808831930160522e-02 3.409870341420173645e-02 3.348952531814575195e-02 -5.294022336602210999e-02 -2.379428409039974213e-02 -1.378446817398071289e-02
6.874941289424896240e-02 4.992785677313804626e-02 -2.496452257037162781e-02 -5.762778595089912415e-02 -1.061333250254392624e-02 4.716147482395172119e-02 -2.923868410289287567e-02 -6.442926079034805298e-02 3.948807343840599060e-02 3.535034507513046265e-02
4.836241900920867920e-02 6.025192514061927795e-02 -5.056180059909820557e-02 1.802984811365604401e-02 6.756282597780227661e-02 -1.680830568075180054e-01 2.555207721889019012e-02 1.248906925320625305e-02 1.694896444678306580e-02 -6.349629908800125122e-02
6.088844686746597290e-02 -5.331638827919960022e-02 -4.430602118372917175e-02 -3.896711021661758423e-02 -5.287177115678787231e-02 -2.108587324619293213e-02 -5.270392447710037231e-02 -3.218363597989082336e-02 -4.800269380211830139e-02 -4.048716276884078979e-02
-1.373816747218370438e-02 -7.296286989003419876e-03 -1.391801983118057251e-02 2.868481678888201714e-03 1.248239576816558838e-01 -1.596499048173427582e-02 -2.967658801935613155e-04 3.965453803539276123e-02 -2.528410218656063080e-02 -4.074217751622200012e-02
1.952607184648513794e-02 -5.810645222663879395e-02 1.881434000097215176e-03 -5.587545409798622131e-02 8.000142872333526611e-03 -5.012210831046104431e-02 4.017644375562667847e-02 2.386139519512653351e-02 -4.613793268799781799e-02 5.866014584898948669e-02
-6.435405462980270386e-02 9.414370171725749969e-03 5.548483878374099731e-02 2.397159812971949577e-03 -7.034582644701004028e-02 -4.606330394744873047e-02 2.485855482518672943e-02 -5.945260822772979736e-02 9.118803776800632477e-03 5.509748682379722595e-02
6.220390647649765015e-02 1.018473692238330841e-02 -5.010344833135604858e-02 -5.680816620588302612e-02 4.736719420179724693e-04 -7.287643384188413620e-03 -1.305760815739631653e-02 -5.707496777176856995e-02 -6.657312065362930298e-02 3.594985604286193848e-02
-7.696806639432907104e-02 3.834307938814163208e-02 -6.923588365316390991e-02 5.997234955430030823e-02 -6.457662582397460938e-02 -7.695053517818450928e-02 3.347206488251686096e-02 3.312341496348381042e-02 7.350615411996841431e-02 5.373598635196685791e-02
2.219831570982933044e-02 -1.220597233623266220e-02 -5.885984376072883606e-02 4.023395851254463196e-02 1.401648391038179398e-02 -5.885371565818786621e-02 5.356312729418277740e-03 2.568138018250465393e-02 -1.830937899649143219e-02 -9.633099660277366638e-03
-7.851564884185791016e-02 -4.631650075316429138e-02 -7.942043989896774292e-02 -2.876921370625495911e-02 5.039671435952186584e-02 -2.764833346009254456e-02 6.648853421211242676e-02 9.854496456682682037e-03 -7.992050796747207642e-02 -3.968167304992675781e-02
5.492768809199333191e-02 2.889543399214744568e-02 1.398659124970436096e-02 1.613536477088928223e-02 -2.005936764180660248e-02 4.878331720829010010e-02 -7.186597585678100586e-02 6.511832773685455322e-02 -4.891810938715934753e-02 -8.506891317665576935e-03
-2.962991595268249512e-02 2.511138282716274261e-02 5.620213598012924194e-02 -6.097188964486122131e-02 -6.543148308992385864e-02 -9.015553444623947144e-02 -3.293536603450775146e-03 1.573320850729942322e-02 3.500523790717124939e-02 -4.388043284416198730e-02
-1.849355921149253845e-02 -4.474426433444023132e-02 -2.945088408887386322e-02 -4.483218118548393250e-02 -7.848955690860748291e-03 8.793571032583713531e-03 -2.867683209478855133e-02 -5.378891527652740479e-02 -2.836837992072105408e-02 3.511423990130424500e-02
-5.334260687232017517e-02 5.777918547391891479e-02 -5.162834748625755310e-02 -3.421257808804512024e-02 4.492805525660514832e-02 -9.299209713935852051e-02 -9.591223672032356262e-03 -9.994753450155258179e-02 -5.253808572888374329e-02 -1.071669440716505051e-02
-1.739334128797054291e-02 -5.662581697106361389e-02 -5.908305756747722626e-03 -1.087104529142379761e-01 -9.663617610931396484e-02 -1.246273983269929886e-02 -2.120969258248806000e-02 -5.257198587059974670e-02 3.706429153680801392e-02 -1.174322422593832016e-02
4.579999018460512161e-03 -1.835782453417778015e-02 3.186538815498352051e-02 1.019092556089162827e-02 -6.432251632213592529e-02 -1.736644841730594635e-02 3.917091526091098785e-03 -6.272152066230773926e-02 3.323048725724220276e-02 6.092820316553115845e-02
-6.795868277549743652e-02 -9.582962957210838795e-04 -5.512588843703269958e-02 -3.916110470890998840e-02 -2.917080745100975037e-02 -3.640108183026313782e-02 1.111784055829048157e-01 -1.135670095682144165e-01 -8.771967887878417969e-02 -9.457446634769439697e-02
-3.745535388588905334e-02 1.228208746761083603e-02 4.276896640658378601e-02 -4.118218645453453064e-02 -2.460757456719875336e-02 -5.566381290555000305e-02 -3.563825273886322975e-03 -6.060645729303359985e-02 -6.314095854759216309e-02 2.025362290441989899e-02
9.407793730497360229e-02 -4.796976223587989807e-02 -1.815526559948921204e-02 -2.472478197887539864e-03 1.341086160391569138e-02 -1.080582067370414734e-01 1.094652223400771618e-03 -5.927444249391555786e-02 -1.263281796127557755e-02 1.836653240025043488e-02
7.007136940956115723e-02 -1.001168861985206604e-01 -3.305754810571670532e-02 5.408357828855514526e-02 2.974669821560382843e-02 -7.221851497888565063e-02 9.807381778955459595e-03 -3.966201469302177429e-02 3.049087338149547577e-02 5.000258609652519226e-02
-1.259439252316951752e-02 4.032480996102094650e-03 -5.591091886162757874e-02 7.799265533685684204e-02 -2.860801992937922478e-03 -7.044435292482376099e-02 -5.763602256774902344e-02 8.309262990951538086e-02 -4.855781421065330505e-02 2.468307502567768097e-02
5.256694927811622620e-02 -7.024678587913513184e-02 -3.580037271603941917e-03 -5.816409364342689514e-03 -3.925671800971031189e-02 -1.784216728992760181e-03 3.430239856243133545e-02 6.536582857370376587e-02 -4.624849185347557068e-02 3.163088113069534302e-02
5.300746485590934753e-02 1.220364216715097427e-02 -3.929655253887176514e-02 2.148592472076416016e-02 -4.347199201583862305e-02 8.682017773389816284e-02 1.437302958220243454e-02 4.318965971469879150e-02 -4.235808178782463074e-02 -3.355496004223823547e-02
1.390749472193419933e-03 4.732035472989082336e-02 3.123755939304828644e-02 -2.786505967378616333e-02 1.432616170495748520e-02 -1.083174571394920349e-01 1.060324534773826599e-02 4.665238782763481140e-02 7.334564626216888428e-02 4.493670165538787842e-02
3.709268942475318909e-02 5.115306004881858826e-03 4.732001572847366333e-03 3.017327003180980682e-02 -4.510207474231719971e-02 -4.017380625009536743e-02 5.507218092679977417e-02 -4.609582573175430298e-02 -7.281050831079483032e-02 1.630263961851596832e-02
3.424744680523872375e-02 -1.362089905887842178e-02 9.055807255208492279e-03 1.416249014437198639e-02 4.660677537322044373e-02 2.107853442430496216e-02 -8.168133907020092010e-03 2.177207916975021362e-02 4.192613437771797180e-02 -9.542536921799182892e-03
8.284475654363632202e-03 -2.467956021428108215e-02 4.650232940912246704e-02 -1.855281740427017212e-02 -1.543196104466915131e-02 5.427217483520507812e-02 -1.492416393011808395e-02 4.755821079015731812e-02 -2.039703167974948883e-02 -3.129500150680541992e-02
-2.408051863312721252e-02 -1.677281595766544342e-02 3.893875330686569214e-02 3.676325082778930664e-02 -8.014356344938278198e-02 -7.190293818712234497e-02 -6.144209951162338257e-02 -5.321412906050682068e-02 -4.922615736722946167e-02 4.923550039529800415e-02
-3.445185720920562744e-03 -7.555355131626129150e-02 -6.844257563352584839e-02 -5.547541752457618713e-02 4.779927060008049011e-02 -6.599642802029848099e-03 -8.606163412332534790e-02 -2.586199715733528137e-02 -2.818098478019237518e-02 2.908238023519515991e-02
-3.950374573469161987e-02 1.064548175781965256e-02 -7.623237371444702148e-02 4.064876958727836609e-02 -6.211004033684730530e-02 -4.004945605993270874e-02 2.509300783276557922e-02 4.800064489245414734e-02 3.244258835911750793e-02 -5.954082682728767395e-02
-1.113223470747470856e-02 2.028166316449642181e-03 -3.166265413165092468e-02 4.585308954119682312e-02 -6.349124014377593994e-02 -2.139730751514434814e-02 5.177909880876541138e-02 -7.087887078523635864e-02 -4.233294352889060974e-02 -4.640281572937965393e-02
-6.166126951575279236e-02 -1.003509536385536194e-01 1.637187600135803223e-02 4.443885385990142822e-02 -2.082980796694755554e-02 5.847055092453956604e-02 -6.468170136213302612e-02 -8.471728116273880005e-02 2.915069088339805603e-02 4.769546911120414734e-02
-6.948785483837127686e-02 -5.054104700684547424e-02 -7.121377438306808472e-02 5.327815562486648560e-02 5.329066142439842224e-02 3.690682351589202881e-02 -1.948284916579723358e-02 3.867340087890625000e-02 2.647553104907274246e-03 1.347159221768379211e-02
-2.205112762749195099e-02 2.033398300409317017e-02 3.491450473666191101e-02 -7.120388001203536987e-02 9.750530868768692017e-02 -1.111539378762245178e-01 3.721793740987777710e-02 -1.360890716314315796e-01 -7.989318110048770905e-03 -6.184467300772666931e-02
4.341315943747758865e-03 -9.597073309123516083e-03 -3.827217221260070801e-02 -2.930168760940432549e-03 5.447326973080635071e-02 5.007146671414375305e-02 1.869692094624042511e-02 -9.863024577498435974e-03 -2.273941179737448692e-03 4.904621839523315430e-02
-6.611274182796478271e-02 -7.846661657094955444e-02 -7.593649625778198242e-02 -4.582176730036735535e-02 9.229782968759536743e-02 -1.939025387400761247e-04 -7.303573191165924072e-02 -9.343069978058338165e-03 -4.298193752765655518e-02 -4.323048517107963562e-02
3.576545044779777527e-02 2.354751527309417725e-02 -6.968369334936141968e-02 -1.582329906523227692e-02 2.381264790892601013e-02 -4.499515891075134277e-02 -3.628308326005935669e-02 -4.329976812005043030e-02 -3.085792437195777893e-02 3.245278820395469666e-02
-1.848827749490737915e-01 6.398011744022369385e-02 1.150045357644557953e-02 -3.979250323027372360e-04 1.380681693553924561e-01 -7.400335278362035751e-03 -2.040550410747528076e-01 4.206642806529998779e-01 -6.372264772653579712e-02 -3.712651878595352173e-02
-7.954783737659454346e-02 -7.212951034307479858e-02 -6.320129334926605225e-02 -3.366793692111968994e-02 -1.054918691515922546e-01 -4.491192102432250977e-02 -1.448478200472891331e-03 -2.585144713521003723e-02 3.655824065208435059e-02 1.561652403324842453e-02
-2.151176705956459045e-02 5.030198022723197937e-02 1.193154696375131607e-02 -7.533258199691772461e-02 1.074689533561468124e-02 -3.142626956105232239e-02 2.798306383192539215e-02 -6.313832849264144897e-02 2.103398740291595459e-02 -3.829026222229003906e-02
-8.774498850107192993e-02 -3.527557477355003357e-02 1.825763098895549774e-02 3.568208962678909302e-02 -2.260602451860904694e-02 3.018384426832199097e-02 -6.885875761508941650e-02 1.447043754160404205e-02 4.017815738916397095e-02 5.852524936199188232e-02
-2.611797489225864410e-02 -9.753910452127456665e-02 -9.523658454418182373e-02 -3.223550319671630859e-02 1.919581741094589233e-02 4.769152402877807617e-02 -2.503722906112670898e-02 8.431576192378997803e-03 1.596226356923580170e-02 -9.627535007894039154e-03
-6.552203558385372162e-03 -5.176571384072303772e-02 1.748465467244386673e-03 -7.160413265228271484e-02 -2.013221010565757751e-02 3.661443293094635010e-02 -2.741796523332595825e-02 -8.223865926265716553e-02 -6.946647539734840393e-03 -7.254914194345474243e-02
-2.181977219879627228e-02 -2.600487880408763885e-02 -6.756677478551864624e-02 5.260013788938522339e-02 5.774205178022384644e-02 6.657381355762481689e-02 2.262941934168338776e-02 6.093138828873634338e-02 -4.953409079462289810e-03 -4.479066655039787292e-02
-6.804294884204864502e-02 2.560777589678764343e-02 2.660842053592205048e-02 5.974548682570457458e-02 2.534425072371959686e-02 2.093997970223426819e-02 -7.774138450622558594e-02 -4.310144111514091492e-02 -6.063066050410270691e-02 -1.923936046659946442e-02
-9.045253507792949677e-03 -8.748264610767364502e-02 9.562876075506210327e-02 -6.605071574449539185e-02 2.806131541728973389e-02 -1.153674200177192688e-01 -6.951761245727539062e-02 4.724444821476936340e-02 5.513036996126174927e-02 5.568436346948146820e-03
3.265976160764694214e-02 -1.471616793423891068e-02 -2.762429416179656982e-02 -2.914180979132652283e-03 1.302428357303142548e-02 1.073626056313514709e-02 -1.363576855510473251e-02 -2.537391334772109985e-02 1.866762153804302216e-02 4.952354729175567627e-02
-2.462492324411869049e-02 -1.189745031297206879e-03 2.420548116788268089e-03 7.295578252524137497e-03 -3.641906753182411194e-02 5.360238254070281982e-03 5.444431304931640625e-02 -2.140069380402565002e-02 -4.876606538891792297e-02 -3.165239468216896057e-03
1.862508803606033325e-02 -2.265573479235172272e-02 6.069255247712135315e-02 1.612962223589420319e-02 -5.375390872359275818e-02 -3.550162166357040405e-02 -6.364628672599792480e-02 4.549712408334016800e-03 2.136562950909137726e-02 -5.518553406000137329e-02
4.843786358833312988e-02 -4.205955564975738525e-02 -8.093370497226715088e-02 3.506043925881385803e-02 2.629305794835090637e-02 1.280409656465053558e-02 3.247125446796417236e-02 -8.904710412025451660e-02 -4.183235391974449158e-02 6.412111967802047729e-02
-7.781117409467697144e-02 -2.899328991770744324e-02 9.651154279708862305e-03 -5.991937965154647827e-02 -3.405340760946273804e-02 4.241802915930747986e-02 1.018592622131109238e-02 -5.830201879143714905e-02 5.568732507526874542e-03 -7.305441051721572876e-02
-2.972259186208248138e-03 6.486894935369491577e-02 -3.502539172768592834e-02 -4.643821716308593750e-02 -3.945927321910858154e-02 4.646614193916320801e-02 4.536873847246170044e-02 3.877144679427146912e-02 2.517880499362945557e-02 -5.570910498499870300e-02
5.637729540467262268e-02 -4.271805658936500549e-02 -1.752557232975959778e-02 -5.296567454934120178e-02 -1.768037863075733185e-02 7.159239798784255981e-02 7.846018299460411072e-03 -7.240646332502365112e-02 -5.691405385732650757e-02 -6.038030982017517090e-02
1.882893033325672150e-02 -2.065770886838436127e-02 -3.857149183750152588e-02 6.581325083971023560e-02 5.716982483863830566e-02 2.391704730689525604e-02 -3.935535624623298645e-02 8.786806464195251465e-02 -1.224147994071245193e-02 -7.903768122196197510e-02
-6.204445287585258484e-02 5.540349707007408142e-02 -6.177751719951629639e-02 -9.270215779542922974e-02 -7.231771945953369141e-02 1.832333020865917206e-02 -5.625701509416103363e-03 -5.645795166492462158e-02 -1.432649092748761177e-03 -1.793041941709816456e-03
4.514035582542419434e-02 2.034398540854454041e-02 2.910291217267513275e-02 -9.281160682439804077e-02 -4.598563071340322495e-03 -4.509450495243072510e-02 2.152855135500431061e-02 -6.343483179807662964e-02 -2.766661532223224640e-02 -4.085771366953849792e-02
6.114567071199417114e-02 6.745690479874610901e-03 -6.086723506450653076e-02 1.969558745622634888e-02 -2.824931591749191284e-02 3.751191869378089905e-02 3.889540210366249084e-02 -4.025331512093544006e-02 -4.040981829166412354e-02 6.736302375793457031e-02
5.530867353081703186e-02 -3.367361426353454590e-02 5.295285023748874664e-03 -3.199939057230949402e-02 2.924646437168121338e-02 5.974288657307624817e-02 6.087242439389228821e-02 -6.535953283309936523e-02 8.041642606258392334e-03 -8.074998855590820312e-02
-1.234137564897537231e-01 -7.539410144090652466e-02 3.011391730979084969e-03 -1.311133708804845810e-02 -8.389292657375335693e-02 3.629578277468681335e-02 -2.079111337661743164e-02 3.406238555908203125e-02 -6.558489799499511719e-02 -3.538979589939117432e-02
-7.811121642589569092e-02 -3.114819712936878204e-02 4.972998425364494324e-02 -5.122654885053634644e-02 8.056733757257461548e-03 5.618028715252876282e-02 5.280325561761856079e-02 8.544550277292728424e-03 -4.074543714523315430e-02 1.380393095314502716e-02
-5.308005213737487793e-02 -2.530460618436336517e-02 -6.461318582296371460e-02 -5.150865390896797180e-02 -2.108561061322689056e-02 5.856774002313613892e-02 3.592498600482940674e-02 -1.043495610356330872e-01 -2.589008957147598267e-02 -1.227465420961380005e-01
-1.568430848419666290e-02 -4.875445738434791565e-02 -2.310868352651596069e-02 -7.243032008409500122e-02 7.625192403793334961e-03 -6.358856707811355591e-02 -5.471088737249374390e-02 2.907909639179706573e-02 9.900742210447788239e-03 -4.771505296230316162e-02
4.287271946668624878e-02 3.481824696063995361e-02 -1.178034842014312744e-01 1.298597780987620354e-03 -2.792075742036104202e-03 -1.864369958639144897e-02 -2.004136890172958374e-02 -4.454104974865913391e-02 2.693836390972137451e-02 -6.507478654384613037e-02
6.517936941236257553e-03 2.370464056730270386e-02 -3.713804483413696289e-02 1.777945086359977722e-02 -1.879768259823322296e-02 -2.136466093361377716e-02 -3.090201131999492645e-02 2.686036750674247742e-02 6.275386363267898560e-02 5.695194471627473831e-03
4.985928535461425781e-03 -3.729316219687461853e-02 6.628098338842391968e-02 -3.548653796315193176e-02 -4.152644425630569458e-03 -1.694799959659576416e-02 4.876649379730224609e-02 -4.562394227832555771e-03 -2.051974274218082428e-02 -6.916318088769912720e-02
-3.218710049986839294e-02 -6.554990261793136597e-02 2.416807226836681366e-02 -5.187362059950828552e-02 1.163487732410430908e-01 -4.510090500116348267e-02 -9.100263006985187531e-03 -4.879256710410118103e-02 -6.617587804794311523e-02 6.571073830127716064e-02
-5.075706541538238525e-02 -2.901710756123065948e-02 4.270096868276596069e-02 -4.762475937604904175e-02 4.388692602515220642e-02 6.635311245918273926e-02 -7.975582033395767212e-02 6.049808859825134277e-02 2.952102199196815491e-02 -5.866815149784088135e-02
-1.494609657675027847e-02 4.335422813892364502e-02 3.351485729217529297e-02 6.256648898124694824e-02 -6.405664980411529541e-02 -2.312215277925133705e-03 -4.234889149665832520e-02 -4.012748971581459045e-02 5.056231096386909485e-02 2.333915047347545624e-02
1.396673172712326050e-02 -9.975573047995567322e-03 5.318056046962738037e-02 -6.112666800618171692e-03 -3.213311359286308289e-02 4.961799085140228271e-02 -4.073746968060731888e-03 -3.350981697440147400e-02 -2.028932049870491028e-02 -4.325606301426887512e-02
-9.084049612283706665e-02 4.648392088711261749e-03 -6.850492209196090698e-02 7.221384346485137939e-02 -8.587855845689773560e-03 -2.092016674578189850e-02 -8.379085361957550049e-02 -5.977027118206024170e-02 -7.355513423681259155e-02 -2.176599763333797455e-02
2.612312091514468193e-03 9.444552415516227484e-05 5.834382772445678711e-02 -5.516622588038444519e-02 -6.834491342306137085e-02 3.962365537881851196e-02 4.890418052673339844e-02 3.006858751177787781e-02 -3.801928833127021790e-02 -6.213697604835033417e-03
-1.226446125656366348e-03 -2.687687799334526062e-02 1.821204274892807007e-02 -7.523306459188461304e-02 4.346679151058197021e-02 6.249059364199638367e-02 -7.590044755488634109e-03 -7.732187956571578979e-02 4.695725440979003906e-02 -5.339489132165908813e-02
-7.370354980230331421e-02 4.691033437848091125e-02 5.146441236138343811e-02 7.206138968467712402e-02 -3.321372717618942261e-02 7.330454140901565552e-02 -1.546550169587135315e-02 -1.188610866665840149e-01 2.196536399424076080e-02 -5.601967871189117432e-02
-9.050274640321731567e-02 -3.054950945079326630e-02 1.810691878199577332e-02 6.588491052389144897e-02 -3.636299446225166321e-02 4.808435915037989616e-05 3.585523739457130432e-02 -1.784215494990348816e-02 5.371776595711708069e-02 2.305502444505691528e-02
-1.068475190550088882e-02 -1.019506454467773438e-01 -4.773109033703804016e-02 -6.315939128398895264e-02 7.518908381462097168e-02 2.019996196031570435e-02 -5.460761860013008118e-02 -1.018640995025634766e-01 5.533640459179878235e-02 -6.088496372103691101e-02
-4.425515979528427124e-02 6.465808302164077759e-02 6.660062819719314575e-02 7.579713314771652222e-02 -5.475640669465065002e-02 2.049575187265872955e-02 -7.729334384202957153e-02 -8.675354719161987305e-02 -6.102040410041809082e-02 5.901195853948593140e-02
-1.317781955003738403e-02 3.740344196557998657e-02 6.381858885288238525e-02 -4.173643141984939575e-02 1.679071970283985138e-02 4.903643950819969177e-02 1.455300860106945038e-02 2.399484999477863312e-02 6.353326141834259033e-02 -3.664256259799003601e-02
-4.165336489677429199e-02 7.294445764273405075e-03 -7.240397389978170395e-03 -7.063174247741699219e-02 -9.051527827978134155e-02 -9.149469435214996338e-02 3.471360355615615845e-02 -2.737268991768360138e-02 4.451051726937294006e-02 -2.680986188352108002e-03
2.187169715762138367e-02 5.521995574235916138e-02 -7.284940034151077271e-02 4.434932395815849304e-02 -1.058855000883340836e-02 5.841522011905908585e-03 6.212139129638671875e-02 5.032830685377120972e-02 1.852303929626941681e-02 -3.324877470731735229e-03
5.778970196843147278e-02 -5.580819398164749146e-02 1.470819581300020218e-02 4.031795263290405273e-02 -7.727732509374618530e-02 -6.443922221660614014e-02 5.156829580664634705e-02 -7.338461279869079590e-02 -6.729550659656524658e-02 5.811917595565319061e-03
-4.185409471392631531e-02 5.638571083545684814e-02 -7.095649093389511108e-02 4.879408702254295349e-02 7.963082939386367798e-02 -2.651404030621051788e-02 -1.283470424823462963e-03 4.256490152329206467e-03 -1.484419032931327820e-02 -8.502516150474548340e-02
-5.685569345951080322e-02 3.236040472984313965e-02 -3.513599978759884834e-03 -6.856556981801986694e-02 4.709560051560401917e-02 -6.461615115404129028e-02 -5.602696537971496582e-02 -7.384710013866424561e-02 2.517992630600929260e-02 2.947644330561161041e-02
-5.018732324242591858e-02 3.128409758210182190e-02 2.446538209915161133e-02 -3.837913647294044495e-02 -1.712007261812686920e-02 -7.549637556076049805e-02 -3.576023876667022705e-02 -5.239945650100708008e-02 -5.927398428320884705e-02 -1.929418928921222687e-02
-5.033316090703010559e-02 7.500595413148403168e-03 4.772069677710533142e-02 6.310006976127624512e-02 3.942487388849258423e-02 4.876069724559783936e-02 5.426009744405746460e-02 -5.826328694820404053e-02 2.653335221111774445e-02 3.281941637396812439e-02
-5.431516841053962708e-02 8.084058761596679688e-02 2.231340110301971436e-02 -3.675089031457901001e-02 2.305190265178680420e-02 3.219748148694634438e-03 -2.868140488862991333e-02 7.831019908189773560e-02 -4.896770045161247253e-02 3.956253081560134888e-02
-8.703208714723587036e-02 4.061793535947799683e-02 4.123536497354507446e-02 6.825807038694620132e-03 -7.766239345073699951e-02 -4.898626729846000671e-02 6.576146930456161499e-02 -5.548525601625442505e-02 6.477694213390350342e-02 -2.640976756811141968e-02
6.249631568789482117e-02 3.475859295576810837e-03 3.912811353802680969e-02 -4.940555989742279053e-02 -5.257814750075340271e-02 -2.604189887642860413e-02 -1.208043284714221954e-02 3.146643564105033875e-02 -5.069166049361228943e-02 4.857151582837104797e-02
6.244387477636337280e-02 1.032218802720308304e-02 -6.824112683534622192e-02 -1.251775422133505344e-03 -7.034846115857362747e-03 4.946804046630859375e-02 1.287901587784290314e-02 -3.711992129683494568e-02 -2.652287855744361877e-02 -7.062966376543045044e-02
-4.037247970700263977e-02 -5.827042087912559509e-02 1.372337690554559231e-03 1.029191836714744568e-01 3.711545374244451523e-03 -2.838011272251605988e-02 -2.905526198446750641e-02 -1.414614450186491013e-02 -1.954284869134426117e-02 5.717380344867706299e-02
4.813481867313385010e-02 -3.465357422828674316e-02 -1.806101528927683830e-03 5.475190654397010803e-02 -6.025273818522691727e-03 -8.310377597808837891e-03 7.922627963125705719e-03 -5.447576195001602173e-02 -6.073940917849540710e-02 -2.342616394162178040e-02
1.670601591467857361e-02 4.133584722876548767e-02 1.427741022780537605e-03 1.088710688054561615e-02 -3.297891467809677124e-02 1.686306111514568329e-02 4.102117940783500671e-02 -4.356716945767402649e-02 -6.456731259822845459e-02 -1.172405946999788284e-02
-3.424734994769096375e-02 4.174694046378135681e-02 -4.166129603981971741e-02 -2.897208742797374725e-02 -2.404016070067882538e-02 8.865343406796455383e-03 -5.156786739826202393e-02 -7.888741791248321533e-02 -5.381359159946441650e-02 5.827080085873603821e-02
-5.303872376680374146e-02 -4.312874376773834229e-02 4.850589111447334290e-02 -1.484208926558494568e-02 4.841043055057525635e-02 1.599135436117649078e-02 -5.660796537995338440e-02 -1.471404102630913258e-03 -6.974431872367858887e-02 3.589765634387731552e-03
-6.127537693828344345e-03 3.583224490284919739e-02 -4.610076546669006348e-02 -8.763348311185836792e-02 6.490150094032287598e-02 -6.717809289693832397e-02 -6.245476379990577698e-02 3.109404072165489197e-02 -5.532420799136161804e-02 8.132904022932052612e-02
-2.225495502352714539e-02 -6.013426929712295532e-02 -5.945848301053047180e-02 2.453089691698551178e-02 -4.726121574640274048e-02 -5.766128655523061752e-03 -5.712492391467094421e-02 -5.605324357748031616e-02 -1.807406358420848846e-02 -1.961920596659183502e-02
3.257409855723381042e-02 4.642951115965843201e-02 4.512667655944824219e-02 -9.116891771554946899e-03 4.938978329300880432e-02 -6.385052949190139771e-02 5.262519419193267822e-02 -5.691827088594436646e-02 -2.202504500746726990e-02 5.216923356056213379e-02
-9.209758788347244263e-02 7.494176179170608521e-02 3.545788303017616272e-02 7.599166035652160645e-02 -4.665526747703552246e-02 -8.650559931993484497e-02 -4.191671684384346008e-02 -5.767957773059606552e-03 -1.726450514979660511e-03 1.292478293180465698e-02
8.588147908449172974e-02 -9.894666820764541626e-02 -3.842384368181228638e-02 -1.776427216827869415e-02 -2.899023145437240601e-02 -9.038943052291870117e-02 1.235456299036741257e-02 3.059531375765800476e-02 2.861665189266204834e-02 3.851957619190216064e-02
-8.718625642359256744e-03 5.347199365496635437e-02 -7.976171374320983887e-02 -4.314700886607170105e-02 5.304997041821479797e-02 5.420401692390441895e-02 1.188907958567142487e-02 -2.286535687744617462e-02 -5.416924133896827698e-03 1.288007479161024094e-03
-4.792957007884979248e-02 -3.067589178681373596e-02 -2.531654573976993561e-02 -3.602936491370201111e-02 1.530163642019033432e-02 -5.877641960978507996e-02 -1.178875565528869629e-02 6.978783756494522095e-02 3.717235103249549866e-02 6.040756404399871826e-02
-1.081482041627168655e-02 5.148117989301681519e-02 -9.953503031283617020e-04 -7.263488322496414185e-02 6.071035191416740417e-02 9.323070757091045380e-03 -5.543066933751106262e-02 4.105797037482261658e-02 5.908119305968284607e-02 1.100026536732912064e-02
2.344774827361106873e-02 3.408243134617805481e-02 3.056985698640346527e-02 -6.800516694784164429e-02 -2.466275356709957123e-02 8.588793687522411346e-03 -6.695404648780822754e-02 -1.317565329372882843e-02 8.235895074903964996e-03 -2.290378697216510773e-02
3.424229100346565247e-02 -8.085675537586212158e-03 -6.608652323484420776e-02 1.096648629754781723e-03 2.983045019209384918e-02 3.301653265953063965e-02 -7.069038599729537964e-02 -1.828228868544101715e-02 -4.763055965304374695e-02 3.966515511274337769e-02
-1.438234187662601471e-02 3.743898496031761169e-02 -7.292351126670837402e-02 1.756193861365318298e-02 -7.596199214458465576e-02 -7.448066025972366333e-02 -4.015764966607093811e-02 4.879806190729141235e-02 4.925441369414329529e-02 -2.243906073272228241e-02
-5.910331383347511292e-02 -4.866789281368255615e-02 -3.774469345808029175e-02 5.954277887940406799e-02 -5.457761883735656738e-02 6.899556517601013184e-02 1.230240613222122192e-02 -3.195862844586372375e-02 -4.254541825503110886e-03 -6.968327332288026810e-03
6.211198121309280396e-02 5.138552188873291016e-02 2.019598521292209625e-02 1.990027539432048798e-02 -2.504927478730678558e-02 1.034245733171701431e-02 -4.254000261425971985e-02 -5.260084941983222961e-02 8.231969550251960754e-03 -6.858655810356140137e-02
2.326232381165027618e-02 9.750642813742160797e-03 -3.805142641067504883e-02 5.554164573550224304e-02 5.663213878870010376e-02 2.981014549732208252e-02 2.761735394597053528e-02 1.590924523770809174e-02 -6.445915251970291138e-02 2.372401393949985504e-02
2.095431089401245117e-02 -3.522509336471557617e-02 -4.875335842370986938e-02 -6.312134116888046265e-02 -3.329650731757283211e-03 -2.407906390726566315e-02 1.048730220645666122e-03 -2.017817087471485138e-02 2.520789951086044312e-02 5.065770819783210754e-03
-2.010199939832091331e-03 9.820348024368286133e-02 2.171828597784042358e-02 -7.488859444856643677e-02 -1.818870194256305695e-02 3.756132349371910095e-02 -4.909084364771842957e-02 -5.107869207859039307e-02 4.182770848274230957e-03 -1.665158383548259735e-02
4.311026073992252350e-03 7.562635838985443115e-02 -2.214392833411693573e-02 9.332293272018432617e-02 -7.428868860006332397e-02 -4.033887758851051331e-02 1.113441400229930878e-02 -2.952407300472259521e-02 2.852898277342319489e-02 -2.414054051041603088e-02
-3.643846139311790466e-02 -6.201655417680740356e-02 -3.753905743360519409e-02 -1.393482275307178497e-02 -3.819074854254722595e-02 5.887448415160179138e-02 5.616938322782516479e-02 -6.639368832111358643e-02 -2.934349887073040009e-02 -8.521566540002822876e-02
-7.032045722007751465e-02 4.978344589471817017e-02 3.594779409468173981e-03 -2.461105771362781525e-02 -1.574299633502960205e-01 2.684673853218555450e-02 -2.556198276579380035e-02 8.208768442273139954e-03 -4.325633868575096130e-02 1.540637016296386719e-02
-2.251186035573482513e-02 -3.458960726857185364e-02 3.720686957240104675e-02 -2.144517749547958374e-02 2.823972702026367188e-02 -2.161705680191516876e-02 1.722840033471584320e-02 -5.724637582898139954e-02 -3.193635866045951843e-02 -8.482881821691989899e-03
2.299966290593147278e-02 -4.256657883524894714e-02 2.190377935767173767e-02 -2.601935900747776031e-02 -6.987864524126052856e-02 6.392717361450195312e-02 4.315062612295150757e-02 -6.256606429815292358e-02 5.188791081309318542e-03 -7.309841364622116089e-02
-2.934583649039268494e-02 3.998779132962226868e-02 -2.943333610892295837e-02 -6.016220152378082275e-02 3.158139064908027649e-02 5.473420396447181702e-02 -5.105625838041305542e-02 -7.157321088016033173e-03 4.398471117019653320e-02 6.029926240444183350e-02
-6.443023681640625000e-03 -2.072930522263050079e-02 -4.287555068731307983e-02 -8.200941979885101318e-02 -8.726375550031661987e-02 -4.336226359009742737e-02 5.684362351894378662e-02 2.268860302865505219e-02 2.909992821514606476e-02 -8.784642070531845093e-02
3.752057906240224838e-03 1.190902851521968842e-02 -2.036560559645295143e-03 -1.041856780648231506e-01 -1.028286665678024292e-02 -6.262667477130889893e-02 -1.140131056308746338e-02 -7.434566318988800049e-02 -1.026279293000698090e-02 -3.168224915862083435e-02
6.289579719305038452e-02 -4.100279137492179871e-02 3.495975164696574211e-03 2.182120271027088165e-02 5.924168601632118225e-02 -3.656860440969467163e-02 2.056125178933143616e-02 -6.273211538791656494e-02 3.777504200115799904e-03 -6.702176481485366821e-02
-2.197579480707645416e-02 3.116131573915481567e-02 -8.173698186874389648e-02 1.064056623727083206e-02 1.375585049390792847e-02 -6.044344604015350342e-02 -1.290943566709756851e-02 5.894656106829643250e-02 -8.152145147323608398e-02 -8.861460536718368530e-02
-6.312336027622222900e-02 -3.402782604098320007e-02 4.372735321521759033e-02 -8.415505290031433105e-02 -9.470690856687724590e-04 -4.473822563886642456e-02 1.766315661370754242e-02 -1.372711360454559326e-02 -4.795115813612937927e-02 -1.607802882790565491e-02
-5.764266476035118103e-02 1.311874948441982269e-03 3.991289809346199036e-02 -1.831221766769886017e-02 -6.865595281124114990e-02 -5.181242153048515320e-02 -4.349456727504730225e-02 5.750124529004096985e-02 1.300723198801279068e-02 -4.524832218885421753e-02
2.269433066248893738e-02 6.936328019946813583e-03 -1.600609160959720612e-02 3.489048779010772705e-02 7.265608874149620533e-04 -2.066887356340885162e-02 -5.533816665410995483e-02 9.422667324542999268e-03 -6.806640326976776123e-02 -8.566189557313919067e-02
-2.955056726932525635e-03 3.860927373170852661e-02 -2.140605449676513672e-02 -4.214939475059509277e-02 -4.898714646697044373e-02 -5.113650113344192505e-02 -4.705610871315002441e-02 2.442055195569992065e-02 -9.707648307085037231e-03 -6.999670714139938354e-02
6.000816822052001953e-02 -5.412570014595985413e-02 6.684864312410354614e-02 8.421272970736026764e-03 -4.685133323073387146e-02 4.057735204696655273e-03 -7.694696635007858276e-02 -8.529770374298095703e-02 3.630729392170906067e-03 -2.711578086018562317e-02
3.628870472311973572e-02 5.522535368800163269e-02 -7.337358314543962479e-03 -1.895599626004695892e-02 -2.781259641051292419e-02 1.095847692340612411e-02 -4.515764862298965454e-02 4.202703014016151428e-02 1.802915520966053009e-02 -6.669790297746658325e-02
7.894484698772430420e-02 6.263905763626098633e-02 3.862353041768074036e-02 5.971138551831245422e-02 2.727385610342025757e-02 -2.551166340708732605e-02 -5.073003470897674561e-02 -8.289696276187896729e-02 -7.760652154684066772e-02 -2.238074317574501038e-02
-2.777923643589019775e-02 -2.232045121490955353e-02 -7.210769504308700562e-02 -1.007836684584617615e-01 6.245202384889125824e-03 -5.505811423063278198e-02 -2.117778733372688293e-02 8.804197609424591064e-02 1.250290405005216599e-02 -8.047831058502197266e-02
-5.024477466940879822e-02 4.285689443349838257e-02 4.266997799277305603e-02 -6.675083190202713013e-02 4.933164641261100769e-02 5.227416753768920898e-02 -8.327208459377288818e-03 -6.707905232906341553e-02 4.248721152544021606e-02 4.419469088315963745e-02
2.395397610962390900e-02 7.076010107994079590e-03 1.822066120803356171e-02 -5.232821777462959290e-02 4.617208614945411682e-03 3.332500159740447998e-02 4.276882857084274292e-02 1.084682904183864594e-02 3.371694684028625488e-02 2.080689929425716400e-02
2.354043908417224884e-02 -7.763681560754776001e-02 3.229269385337829590e-02 -3.263641893863677979e-02 6.605716794729232788e-02 -1.438724715262651443e-02 -1.554520335048437119e-03 2.119482122361660004e-02 2.828835882246494293e-02 5.596357956528663635e-02
-4.083611816167831421e-02 -5.900537595152854919e-02 -3.000430297106504440e-03 -5.060025677084922791e-02 9.264186024665832520e-02 7.613822817802429199e-02 -5.198175460100173950e-02 1.752251759171485901e-02 -9.873742610216140747e-02 6.839621346443891525e-03
6.048070266842842102e-02 -5.329943820834159851e-02 4.558679834008216858e-02 5.359052121639251709e-02 -8.366133552044630051e-04 -6.090736016631126404e-03 6.229635328054428101e-03 2.355803363025188446e-02 -2.144640684127807617e-02 -1.462192460894584656e-02
-7.181526161730289459e-03 -1.401306688785552979e-02 2.614466100931167603e-02 -6.064720079302787781e-02 -2.366685308516025543e-02 -7.797254621982574463e-02 -5.384845286607742310e-02 -1.434706244617700577e-02 -7.474578917026519775e-02 -7.327833771705627441e-02
-1.646462269127368927e-02 1.201167330145835876e-02 -2.032986655831336975e-02 -2.625014632940292358e-02 -4.024742916226387024e-02 -6.204925104975700378e-02 4.416262358427047729e-02 -1.904443092644214630e-02 3.043265827000141144e-02 -6.428275257349014282e-02
6.353048235177993774e-02 5.616915295831859112e-04 -3.999843820929527283e-02 4.919038340449333191e-02 -6.067138537764549255e-02 4.515204578638076782e-02 2.226120326668024063e-03 6.676664948463439941e-02 -3.933444619178771973e-02 5.604816600680351257e-02
-8.143598586320877075e-02 4.686148837208747864e-02 -1.892349123954772949e-02 -4.976818338036537170e-02 -8.060411363840103149e-02 -4.433242604136466980e-02 -2.439292613416910172e-03 3.129904717206954956e-02 5.318543687462806702e-02 -7.688795030117034912e-02
-3.038654662668704987e-02 -5.361128970980644226e-02 -6.862072646617889404e-02 -6.401304900646209717e-02 -2.321671321988105774e-02 -2.568230591714382172e-02 -9.739592671394348145e-02 7.721047848463058472e-02 -6.607969850301742554e-02 9.123203344643115997e-03
5.197309330105781555e-02 -7.003398984670639038e-02 2.755195088684558868e-02 -5.750470608472824097e-02 2.372625470161437988e-02 5.533110350370407104e-02 -5.120544508099555969e-02 -2.558499947190284729e-02 5.608733370900154114e-02 -4.891699925065040588e-02
-7.150956243276596069e-02 6.237735971808433533e-02 -3.802712634205818176e-02 -1.775881089270114899e-02 -7.410205155611038208e-02 1.492069941014051437e-02 3.862196952104568481e-02 5.896851792931556702e-02 -3.504347428679466248e-02 2.217302657663822174e-02
-7.298646867275238037e-02 -5.563114956021308899e-02 -4.047892615199089050e-02 2.897585742175579071e-03 2.482594177126884460e-02 -2.427917532622814178e-02 5.666078627109527588e-02 4.637277498841285706e-02 1.986728422343730927e-02 -6.998535245656967163e-02
-6.680348515510559082e-02 -2.301938086748123169e-02 1.621574908494949341e-02 -1.280490309000015259e-03 5.318144708871841431e-02 -3.640434890985488892e-02 -2.202126961492467672e-05 -9.429765865206718445e-03 -5.698541924357414246e-02 -1.613561809062957764e-02
-7.497885078191757202e-02 -6.159746646881103516e-02 -6.873509287834167480e-02 -2.265760675072669983e-02 4.096800461411476135e-02 -2.798965759575366974e-02 8.161564357578754425e-03 5.000198632478713989e-02 4.311616346240043640e-02 -7.372017204761505127e-02
3.334604203701019287e-02 -8.615710539743304253e-04 4.653856903314590454e-02 2.411736734211444855e-02 4.134410619735717773e-02 5.535986274480819702e-02 -2.118999324738979340e-02 2.330742590129375458e-02 3.038160211872309446e-04 7.912706583738327026e-03
-4.336136858910322189e-03 -4.887865856289863586e-02 -7.376114808721467853e-05 2.136887423694133759e-02 3.807349503040313721e-02 -5.334527045488357544e-02 -3.276062896475195885e-03 -4.055874794721603394e-02 -4.699465818703174591e-03 -1.041066795587539673e-01
-7.275565713644027710e-02 -5.157954618334770203e-02 4.343345761299133301e-02 3.122813254594802856e-02 4.980245232582092285e-02 -1.838601380586624146e-02 -1.166533306241035461e-02 5.402145534753799438e-02 -1.342932879924774170e-02 6.391458213329315186e-03
3.394692018628120422e-02 3.879935666918754578e-02 4.953213781118392944e-02 -2.639827132225036621e-02 -6.591549515724182129e-02 6.715273018926382065e-03 -3.925379365682601929e-03 3.859343752264976501e-02 1.168189849704504013e-02 5.056044086813926697e-02
1.682040654122829437e-02 9.903135709464550018e-03 -1.315581146627664566e-02 -5.543957278132438660e-02 -9.795646369457244873e-02 4.793499410152435303e-02 -7.941964268684387207e-02 7.618418335914611816e-02 -9.913523495197296143e-02 2.634080685675144196e-02
-5.210284516215324402e-02 6.106324493885040283e-02 3.273606672883033752e-02 3.118512686342000961e-03 7.855717092752456665e-02 -9.295311570167541504e-02 1.637662947177886963e-02 6.235494464635848999e-02 3.034727880731225014e-03 -8.212799578905105591e-02
6.821552664041519165e-02 -2.303329668939113617e-02 -8.278968930244445801e-02 -6.329943239688873291e-02 2.009690552949905396e-02 -6.172481551766395569e-02 -6.548795104026794434e-02 -1.088084653019905090e-01 7.980975508689880371e-02 1.037491671741008759e-02
6.152328476309776306e-02 -3.475778969004750252e-03 -6.719316542148590088e-02 -6.384718418121337891e-02 -3.604001551866531372e-02 5.410161986947059631e-02 -2.909003943204879761e-02 -4.645424708724021912e-02 2.282075770199298859e-02 -3.264461457729339600e-02
-9.123253077268600464e-02 6.549953669309616089e-02 -1.010571718215942383e-01 -1.204215511679649353e-01 -4.856435582041740417e-02 5.617620423436164856e-02 1.456714607775211334e-02 -6.420151144266128540e-02 -6.842787563800811768e-02 -4.834951460361480713e-02
6.618638988584280014e-03 5.749993771314620972e-02 -4.050400108098983765e-02 -8.746649138629436493e-03 4.820991307497024536e-03 3.312011435627937317e-02 5.362063646316528320e-03 -5.297904368489980698e-03 5.400693789124488831e-02 -2.864580042660236359e-02
-7.727093249559402466e-02 2.040936797857284546e-02 -8.552011847496032715e-02 8.534607291221618652e-02 -1.248796470463275909e-02 5.157746747136116028e-02 -6.165378168225288391e-02 -3.339610248804092407e-02 -4.077871516346931458e-02 3.657956048846244812e-02
5.178023129701614380e-02 5.423680692911148071e-02 -6.440715398639440536e-03 -7.389190793037414551e-02 2.058262005448341370e-02 4.054531455039978027e-02 5.140468478202819824e-02 3.105620108544826508e-02 2.544665709137916565e-02 -5.051562562584877014e-03
-7.105633616447448730e-02 -7.958268746733665466e-03 2.893924526870250702e-02 -1.071630977094173431e-02 -6.993010640144348145e-02 -7.647700607776641846e-02 3.652936965227127075e-02 -1.570109650492668152e-02 -3.683163225650787354e-02 4.454952105879783630e-02
4.761335253715515137e-02 1.276766043156385422e-02 8.722236379981040955e-03 -2.432442642748355865e-02 2.925322949886322021e-02 -2.758835256099700928e-02 -4.103361070156097412e-02 5.177212134003639221e-02 -4.459102079272270203e-02 -7.875905185937881470e-02
-4.092252254486083984e-02 -3.779122605919837952e-02 -6.847212463617324829e-02 -2.182592637836933136e-02 -2.835150808095932007e-03 -3.321048617362976074e-02 1.875501498579978943e-02 2.512685395777225494e-02 4.762426018714904785e-02 -6.780613958835601807e-02
-3.561219200491905212e-02 -1.362853776663541794e-02 -3.817978873848915100e-02 -6.560986489057540894e-02 6.497848033905029297e-02 4.995618388056755066e-02 -7.362537086009979248e-02 2.828014083206653595e-02 -2.451792359352111816e-02 5.179091915488243103e-02
-2.324383240193128586e-03 1.431253273040056229e-02 -7.092066854238510132e-02 -5.092160776257514954e-02 -2.373293600976467133e-02 -1.260982174426317215e-02 -6.159590557217597961e-02 3.462322056293487549e-02 6.135949864983558655e-02 -5.408346769399940968e-04
-1.085659209638834000e-02 -5.085069313645362854e-02 1.481398101896047592e-02 4.982270300388336182e-02 -2.167016267776489258e-02 4.683983325958251953e-02 -3.806990012526512146e-02 1.201249659061431885e-02 -8.032371103763580322e-02 6.361273583024740219e-03
3.577690944075584412e-02 -7.062346488237380981e-02 -2.246841788291931152e-02 -3.954003751277923584e-02 -1.384825818240642548e-02 6.150058284401893616e-02 -4.409063979983329773e-02 4.479980468750000000e-02 -5.526162683963775635e-03 5.372259765863418579e-02
-4.388305544853210449e-02 4.648800566792488098e-02 1.801889203488826752e-02 -8.004628121852874756e-03 -4.895222187042236328e-02 -3.364678472280502319e-02 3.117864951491355896e-03 -1.577734015882015228e-02 -4.122620075941085815e-02 -3.451058641076087952e-02
1.190341915935277939e-02 -4.497970268130302429e-02 1.108845882117748260e-02 -6.064428947865962982e-03 3.802799805998802185e-02 -7.099656015634536743e-02 -2.367787435650825500e-02 3.258360922336578369e-02 7.623361051082611084e-02 3.227326273918151855e-02
-2.081299386918544769e-02 7.126621156930923462e-02 -3.574372828006744385e-02 -4.019527137279510498e-02 1.424658298492431641e-02 9.103325195610523224e-03 4.180552065372467041e-02 -2.889952249825000763e-02 -6.193323805928230286e-02 -5.089791491627693176e-02
-1.277895737439393997e-02 5.456988885998725891e-02 -3.818168118596076965e-02 1.159879844635725021e-02 -9.768344461917877197e-03 1.164305768907070160e-02 1.904591545462608337e-02 -1.478914078325033188e-02 5.543010309338569641e-02 -5.426308885216712952e-02
-3.263657390562002547e-06 -5.600600317120552063e-02 -5.565018579363822937e-02 -1.996783725917339325e-02 -1.057116873562335968e-02 3.829397493973374367e-03 1.219410728663206100e-02 1.643930003046989441e-02 4.374831169843673706e-02 -5.490139871835708618e-02
-5.667404830455780029e-02 5.650686100125312805e-02 -9.699981659650802612e-02 -1.044271588325500488e-01 4.310049116611480713e-02 -5.661088973283767700e-02 -2.372741885483264923e-02 -4.511238634586334229e-02 -9.682624042034149170e-02 -7.581333816051483154e-02
2.565232105553150177e-03 3.541712462902069092e-02 6.460952013731002808e-02 -3.585848584771156311e-02 3.250894695520401001e-02 2.008358389139175415e-02 4.242217540740966797e-02 2.620995976030826569e-02 -3.579986467957496643e-02 5.388383194804191589e-02
3.556383028626441956e-02 5.856589972972869873e-02 -5.752141028642654419e-02 -3.446383401751518250e-02 -3.487187251448631287e-02 6.496792286634445190e-02 -1.696498692035675049e-02 4.875408485531806946e-03 1.519118668511509895e-03 1.102608162909746170e-02
1.159782242029905319e-02 -1.529189478605985641e-02 1.940236426889896393e-02 -7.452087104320526123e-02 1.409342139959335327e-02 -5.073691532015800476e-02 4.688715189695358276e-02 -2.059836499392986298e-02 -1.882516592741012573e-02 -4.989499226212501526e-02
1.132779661566019058e-02 1.679287757724523544e-03 -1.044304203242063522e-02 4.678625985980033875e-02 -2.533419057726860046e-02 1.930922642350196838e-02 -3.638615366071462631e-03 4.791038110852241516e-02 3.101154416799545288e-02 -1.097122766077518463e-02
-4.782102536410093307e-03 5.573457852005958557e-02 4.994319006800651550e-02 -1.527607068419456482e-02 -6.378450896590948105e-03 -3.636810928583145142e-02 4.396126419305801392e-02 3.003859333693981171e-02 -6.549730896949768066e-03 2.296530269086360931e-02
6.547129899263381958e-02 3.381215501576662064e-03 -8.862809836864471436e-02 3.115683607757091522e-02 -2.315997518599033356e-02 2.773815952241420746e-02 -6.848305463790893555e-02 5.999656394124031067e-02 2.592693641781806946e-02 2.247438207268714905e-02
3.976697474718093872e-02 4.800175502896308899e-02 -2.227876894176006317e-02 -6.607419997453689575e-02 2.746189758181571960e-02 3.576479852199554443e-02 -2.052228152751922607e-02 -2.318302169442176819e-02 -1.586191542446613312e-02 5.085961520671844482e-02
3.523916006088256836e-02 2.929560653865337372e-02 -2.641013450920581818e-02 -6.522307544946670532e-02 5.624999478459358215e-02 1.617535762488842010e-02 4.886902496218681335e-02 -5.353959277272224426e-02 4.995940998196601868e-02 2.867381647229194641e-02
-5.137642845511436462e-02 7.093861699104309082e-02 -8.376763761043548584e-02 1.730210334062576294e-02 -9.228590130805969238e-02 2.164206653833389282e-02 -7.224055379629135132e-02 -2.875133976340293884e-02 9.241017512977123260e-03 -4.776043817400932312e-02
1.560514140874147415e-02 4.641348123550415039e-02 -4.503825306892395020e-02 -6.608916819095611572e-02 -1.071960479021072388e-02 5.943391472101211548e-02 2.793809957802295685e-02 -7.456048578023910522e-02 -6.933660060167312622e-02 4.801051691174507141e-03
